{"ModelName":"Model01","layer":[18,29,29,2],"layers":[{"outputs":[-0.0273909029,-0.197246745,0.00407341355,0.5130002,0.138387442,-0.19927758,-0.370028734,0.2702241,0.3713491,0.7268442,0.5895552,0.4365561,0.426643133,-0.8585978,0.212390676,-0.9156432,0.4010052,-0.482241869,-0.323226959,0.708843946,-0.367431,-0.5989515,0.6108391,0.19855234,-0.323889136,0.710996568,-0.56083566,-0.224073991,0.92900455],"inputs":[0.732,0.792,0.788,0.755,0.753,0.828,0.773,0.525,0.757,0.789,0.802,0.861,0.781,0.833,0.697,0.734,0.855,0.716],"weights":[[-0.203817487,-0.264610022,-0.08795575,-0.454646558,0.385818064,-0.287111372,0.4095559,-0.2357352,0.1735663,-0.248664856,0.483168,0.0987774655,0.1934742,-0.138689116,-0.0009102402,-0.2582547,0.02296299,0.313370436],[0.3368944,-0.01567737,0.09158966,0.09580688,0.389377862,0.3168606,-0.003269159,-0.121005774,-0.0571306124,0.11655619,-0.401193053,-0.271652222,-0.5441982,-0.3101511,-0.173457563,-0.328905374,0.491342843,0.15318872],[0.01537065,-0.0447236821,0.3611403,-0.349837154,0.353159279,-0.0616963133,-0.3773721,0.416826427,-0.2737296,-0.04113602,-0.407070041,0.09893648,-0.4091861,0.3302946,0.1897294,-0.292401,0.325061262,0.29242146],[0.3438279,0.29728353,-0.232089639,0.06890221,0.114793696,-0.012097666,0.14778921,-0.2936076,-0.294141233,-0.1589824,-0.360059619,0.295050144,-0.302257419,0.11469914,-0.0610404871,0.438852519,0.09964278,0.488230824],[0.5156295,-0.00500354264,0.07728681,-0.390099257,-0.146783,0.4088316,0.06040676,0.393539757,-0.287936658,0.3210158,0.0486304164,-0.3515549,0.008540563,0.3555812,-0.205093741,0.0414342247,-0.2715718,-0.281506151],[-0.317523032,0.378134519,0.364037573,-0.08442461,0.0184497721,0.157054767,-0.272909164,0.313361526,0.3663086,-0.0772658139,-0.273783773,0.08377957,-0.230612531,-0.260467023,-0.303209156,0.195577815,-0.1460429,-0.102236673],[-0.189877182,0.261080861,-0.08336849,-0.115125157,-0.4370467,0.277042985,-0.2267551,0.279076964,0.0912929848,-0.52816,0.251436979,-0.308188349,-0.04808431,0.230040222,-0.128946856,-0.191068873,0.158615366,0.238652289],[-0.576737344,-0.0465525649,0.412321448,0.232179746,0.250842243,0.0223469771,-0.5198545,-0.404323667,0.154664516,0.169247329,0.05875286,-0.189495862,0.5582908,0.253015846,-0.09016967,0.274441957,-0.195194528,-0.179184],[0.1821652,0.341786951,0.286960155,-0.352940619,-0.319212973,0.149897456,-0.477546453,-0.237227365,-0.452749342,0.157893538,0.39668113,0.001861499,-0.276383,0.4638757,-0.0284241661,-0.08304669,0.182192668,0.4190668],[0.0150046693,-0.153150126,0.5107453,0.408812523,-0.2290556,0.429927051,-0.398456782,0.07858467,-0.295033246,-0.241743535,-0.497808874,0.417263627,0.154590011,0.130854025,-0.0136979409,0.426141828,0.0541451462,0.4148888],[0.354830623,0.436142385,-0.184596956,-0.210517615,0.351015151,0.06523031,-0.0245664958,-0.07404022,-0.201276869,-0.277487129,-0.03616185,0.166502669,0.452519,0.0128047857,-0.330525249,0.0926615,-0.125402346,0.3782881],[0.0594811626,0.403115749,0.05011942,0.3822027,-0.472832024,0.03853489,-0.0388283171,0.362622827,-0.273290128,-0.404625267,0.4627065,-0.319393367,0.4172721,-0.260780245,-0.135061577,0.09035745,0.1327583,0.285018772],[0.165622324,-0.2663295,0.0842929557,-0.05350485,-0.143949434,0.396165371,0.267573,0.441965759,-0.41370067,0.0555568263,-0.00309996656,0.009635921,0.115821958,-0.342531323,-0.133904874,0.1086076,0.09720311,0.364174366],[-0.09235762,-0.309001237,0.536048353,0.29160133,0.4572483,-0.4048997,-0.132905766,-0.0492629074,0.09593173,-0.383934528,-0.26509428,-0.07443193,-0.06522432,-0.108626746,-0.4615378,0.0828022361,-0.456324071,-0.280294836],[-0.201723829,0.5305691,-0.06446543,0.1284993,-0.332304329,-0.348521262,0.00865987,0.2946405,-0.171746314,0.255150169,-0.06132511,0.2839461,0.451178461,-0.0506666042,0.185646951,0.00329717272,-0.3679839,-0.203341916],[0.08308392,0.2751886,-0.2491458,-0.0362958051,-0.471613824,0.340353251,-0.189855129,0.09704117,0.201009884,0.1925691,-0.318691164,-0.379321843,-0.0123921949,-0.42931664,-0.411310852,-0.402941257,-0.2565908,0.002150228],[-0.0795613155,0.3245542,-0.419558942,0.409817755,-0.2082383,-0.4166127,0.3197288,0.205838367,-0.455163926,0.3387799,-0.29834038,0.267594576,0.18044889,0.351227015,-0.374722749,0.215702415,0.411117017,-0.281771868],[0.574255,0.323485732,0.4453715,0.06299728,-0.216983408,-0.0348772444,-0.048655238,0.209236443,0.103513129,-0.424138635,-0.30443272,-0.31307134,-0.05498104,0.24805665,-0.3173831,-0.312093824,-0.415340215,-0.0597751625],[-0.385552049,0.213621423,0.0419076569,-0.3040767,0.211418226,-0.174109027,0.349832416,-0.0647808239,0.0116913356,0.464418828,-0.454126328,-0.005977759,-0.354063779,0.29419452,-0.354727477,0.395007879,-0.256021827,-0.123692341],[0.009315664,0.412582546,0.0223988276,0.0963702,0.097572,0.0122288484,-0.110504285,0.204208314,0.08187381,0.277269244,-0.248290271,0.0003248681,0.213022724,0.166583851,0.163261086,0.198608369,-0.07695159,-0.351694137],[0.161059856,0.125472829,-0.311094463,0.07220245,0.05678684,0.246457309,0.455699265,-0.04231279,0.199323043,-0.356807947,-0.490690082,-0.152387261,-0.466388524,0.0810478255,0.00360911433,0.2254942,-0.03223629,-0.213262215],[0.295514077,0.0864778161,-0.242884859,-0.445550025,0.2827946,0.511979461,0.410707,-0.366290152,-0.226858228,-0.444283962,-0.2577269,-0.06871555,0.2717211,-0.2222874,-0.09674638,-0.445507973,-0.1348516,0.0886923149],[-0.220316127,-0.3839057,-0.240140945,0.200319588,0.232761145,-0.4433587,0.2671228,-0.25476867,0.161151379,-0.3103767,0.239921868,0.18734026,0.474510282,0.478978485,-0.292728066,-0.151555568,0.495962024,0.300682515],[0.508798838,0.0199228,0.364236772,-0.353509247,0.111875989,-0.050564386,0.02767665,0.370144576,-0.349283159,-0.215475962,-0.10645289,0.262010753,0.4507679,-0.491049439,-0.2845642,0.4481413,-0.167051867,-0.11896275],[0.5446219,-0.3718622,0.399147034,-0.257774919,-0.152573779,0.06085073,-0.09827965,0.286457449,-0.03134761,0.187880084,-0.3645042,-0.186792165,-0.205026448,-0.1109066,-0.106815964,0.0792117,-0.317601442,0.437253773],[0.354279071,-0.2751119,-0.03918958,0.268453836,-0.284707874,0.345030457,0.427631974,-0.04141647,0.3028961,0.2943791,-0.313808054,0.147843733,-0.316724569,-0.4900752,0.222759515,0.3792034,-0.082625635,0.37438193],[0.366953224,0.209568635,-0.29233098,-0.209328651,0.218646228,0.316697419,-0.521283567,0.3262702,0.330747724,0.346095,-0.480091065,-0.398070157,-0.101601109,-0.104421504,0.3129332,-0.203455284,-0.300116062,-0.460673],[0.355473071,-0.3711466,0.274495542,-0.508853734,-0.251110226,0.2596857,0.137310132,0.0121788168,0.0263504554,0.224315122,-0.207091942,-0.4110199,0.108148709,-0.05050897,0.34606725,-0.0177601632,-0.00373507314,-0.177429467],[0.09530409,-0.161676943,-0.0373146832,0.0166764762,0.20031333,-0.128058225,0.46806106,0.440285385,-0.07936106,0.2248356,-0.139677778,0.181994513,0.2616119,0.409512848,0.2980488,0.06578855,0.350565135,-0.243148535]],"weightsDelta":[[0.00247619185,0.00267915847,0.00266562728,0.0025539957,0.00254723034,0.00280093844,0.0026148858,0.00177595729,0.00256076152,0.00266901,0.0027129862,0.00291257,0.00264194817,0.00281785242,0.002357795,0.00248295767,0.00289227348,0.00242206757],[-0.0943562,-0.102090314,-0.101574704,-0.0973209441,-0.09706315,-0.106730789,-0.09964118,-0.0676735044,-0.09757875,-0.101703607,-0.103379332,-0.110984549,-0.100672394,-0.107375294,-0.08984464,-0.09461401,-0.110211141,-0.09229378],[-0.0285904668,-0.0309339482,-0.0307777151,-0.0294888,-0.0294106863,-0.0323400348,-0.0301918462,-0.0205054563,-0.0295669176,-0.030816773,-0.03132453,-0.03362895,-0.03050431,-0.0325353257,-0.027223438,-0.0286685843,-0.0333946049,-0.02796554],[-0.0354299769,-0.0383340754,-0.03814047,-0.0365432128,-0.03644641,-0.04007653,-0.0374144427,-0.025410844,-0.03664002,-0.0381888673,-0.03881809,-0.0416737869,-0.0378016569,-0.04031854,-0.0337359235,-0.0355267823,-0.04138338,-0.0346555524],[-0.0210035834,-0.02272519,-0.0226104148,-0.0216635317,-0.0216061473,-0.0237581525,-0.0221800152,-0.0150640449,-0.02172092,-0.0226391088,-0.023012124,-0.0247050356,-0.022409562,-0.023901619,-0.019999316,-0.0210609715,-0.024532875,-0.02054449],[0.009156388,0.009906911,0.009856877,0.009444089,0.00941907149,0.0103572262,0.009669246,0.00656708144,0.009469107,0.009869385,0.0100319991,0.0107700136,0.009769316,0.0104197692,0.008718583,0.009181405,0.010694962,0.008956249],[0.0119113093,0.0128876464,0.0128225563,0.0122855715,0.0122530274,0.0134734483,0.0125784725,0.008542947,0.0123181166,0.0128388284,0.013050369,0.0140104331,0.0127086509,0.01355481,0.0113417795,0.0119438544,0.0139128,0.0116509534],[0.0373421,0.04040293,0.0401988737,0.03851542,0.0384133942,0.0422394276,0.03943367,0.0267822444,0.03861745,0.0402498879,0.0409130678,0.0439228825,0.03984178,0.0424945,0.03555662,0.0374441333,0.0436168,0.0365258828],[-0.0228812248,-0.0247567352,-0.0246317014,-0.02360017,-0.0235376544,-0.0258820429,-0.0241628252,-0.016410714,-0.0236626882,-0.02466296,-0.02506932,-0.0269135721,-0.0244128928,-0.0260383338,-0.02178718,-0.0229437426,-0.0267260224,-0.02238109],[-0.0372040868,-0.040253602,-0.0400503,-0.038373068,-0.03827142,-0.04208331,-0.0392879248,-0.0266832579,-0.03847472,-0.0401011258,-0.0407618545,-0.0437605456,-0.0396945253,-0.04233744,-0.0354252048,-0.03730574,-0.043455597,-0.0363908857],[0.0153404614,0.0165978763,0.016514048,0.01582247,0.0157805569,0.0173523258,0.0161996949,0.0110023795,0.0158643853,0.0165350046,0.0168074463,0.0180439036,0.0163673516,0.01745711,0.01460697,0.0153823765,0.017918162,0.0150051517],[-0.0574006364,-0.0621056035,-0.06179194,-0.0592042059,-0.0590473749,-0.06492859,-0.0606157,-0.0411684848,-0.05936104,-0.0618703552,-0.06288977,-0.06751632,-0.0612430274,-0.06532067,-0.0546560735,-0.05755747,-0.06704582,-0.0561459772],[-0.02271189,-0.02457352,-0.0244494118,-0.0234255139,-0.0233634617,-0.0256904978,-0.0239840038,-0.016289264,-0.02348757,-0.0244804379,-0.0248837918,-0.0267143957,-0.0242322218,-0.0258456338,-0.02162594,-0.0227739457,-0.0265282318,-0.0222154558],[0.00316729723,0.00342691178,0.003409604,0.00326681626,0.00325816241,0.0035826806,0.00334470044,0.002271627,0.00327547,0.003413931,0.00347018079,0.00372546841,0.00337931584,0.003604315,0.00301585556,0.00317595131,0.003699507,0.003098067],[0.0541790128,0.0586199127,0.0583238527,0.05588136,0.05573333,0.0612844564,0.05721363,0.0388578959,0.05602939,0.0583978668,0.0593600646,0.0637269542,0.05780575,0.06165453,0.0515884869,0.0543270446,0.06328286,0.0529947728],[-0.00337369484,-0.00365022733,-0.0036317918,-0.003479699,-0.00347048137,-0.00381614664,-0.00356265879,-0.002419658,-0.003488917,-0.00363640045,-0.003696316,-0.0039682393,-0.00359952985,-0.003839191,-0.00321238441,-0.00338291284,-0.00394058647,-0.003299953],[-0.00102161174,-0.00110535033,-0.00109976775,-0.00105371152,-0.00105092023,-0.00115559355,-0.00107883313,-0.000732713263,-0.00105650281,-0.00110116333,-0.00111930678,-0.00120164978,-0.00108999829,-0.00116257183,-0.000972764159,-0.001024403,-0.001193276,-0.0009992814],[-0.0551452935,-0.0596654,-0.0593640581,-0.056878,-0.05672733,-0.062377464,-0.0582340322,-0.0395509265,-0.0570286736,-0.05943939,-0.06041875,-0.06486352,-0.0588367134,-0.06275414,-0.0525085665,-0.0552959666,-0.06441151,-0.0539399348],[0.0275580138,0.0298168678,0.0296662766,0.0284239072,0.0283486135,0.03117218,0.0291015636,0.01976497,0.0284992047,0.0297039244,0.0301933419,0.0324145481,0.0294027459,0.0313604176,0.02624035,0.02763331,0.0321886651,0.026955653],[0.0552477166,0.0597762167,0.0594743155,0.0569836423,0.0568326935,0.06249332,0.0583421923,0.0396243855,0.0571345948,0.05954979,0.060530968,0.0649839938,0.0589459948,0.0628706962,0.05260609,0.05539867,0.06453115,0.05404012],[-0.05136583,-0.0555761456,-0.0552954562,-0.0529797859,-0.0528394431,-0.0581023321,-0.05424288,-0.0368402451,-0.05312013,-0.0553656258,-0.0562778637,-0.060418006,-0.0548042543,-0.0584531948,-0.0489098169,-0.0515061766,-0.0599969774,-0.0502430834],[-0.006796652,-0.00735375471,-0.0073166145,-0.007010208,-0.00699163834,-0.00768801663,-0.007177339,-0.004874648,-0.00702877855,-0.00732589932,-0.00744660525,-0.007994423,-0.00725161936,-0.00773444166,-0.006471676,-0.00681522256,-0.007938713,-0.0066480916],[0.0171217266,0.0185251478,0.0184315853,0.0176597051,0.0176129248,0.0193672,0.0180807319,0.0122799268,0.0177064873,0.0184549764,0.0187590513,0.0201390814,0.018267855,0.0194841512,0.0163030662,0.0171685088,0.0199987385,0.0167474821],[-0.03463384,-0.03747268,-0.0372834243,-0.035722062,-0.0356274359,-0.0391759872,-0.0365737155,-0.0248398446,-0.03581669,-0.03733074,-0.0379458219,-0.0407373458,-0.0369522274,-0.0394125544,-0.032977853,-0.03472847,-0.0404534638,-0.0338768177],[-0.0292284843,-0.03162426,-0.0314645432,-0.030146867,-0.030067008,-0.0330617279,-0.0308656,-0.0209630523,-0.0302267279,-0.0315044746,-0.03202356,-0.0343794078,-0.0311850384,-0.0332613774,-0.0278309491,-0.0293083452,-0.03413983,-0.0285896119],[-0.0349629261,-0.03782874,-0.0376376845,-0.0360614881,-0.03596596,-0.03954823,-0.0369212329,-0.0250758678,-0.0361570157,-0.0376854464,-0.0383063741,-0.0411244258,-0.03730334,-0.0397870466,-0.033291202,-0.0350584537,-0.040837843,-0.03419871],[0.0268666819,0.0290688686,0.0289220568,0.0277108531,0.0276374482,0.03039018,0.02837151,0.0192691348,0.02778426,0.0289587583,0.0294359,0.0316013843,0.0286651347,0.0305736959,0.0255820733,0.0269400887,0.0313811675,0.0262794327],[0.03740369,0.04046957,0.0402651764,0.0385789461,0.03847675,0.0423090942,0.03949871,0.0268264171,0.038681142,0.0403162725,0.0409805477,0.04399533,0.0399074927,0.0425645858,0.0356152654,0.03750589,0.04368874,0.03658613],[-0.00145980774,-0.00157946418,-0.001571487,-0.00150567607,-0.00150168757,-0.001651258,-0.001541573,-0.00104699319,-0.0015096647,-0.00157348125,-0.00159940682,-0.001717069,-0.00155752723,-0.00166122941,-0.00139000826,-0.00146379636,-0.00170510344,-0.00142789946]],"gamma":[0.003382776,-0.128901914,-0.0390580148,-0.04840161,-0.02869342,0.0125087267,0.01627228,0.0510138,-0.0312585048,-0.0508252569,0.0209569149,-0.07841617,-0.0310271718,0.004326909,0.07401504,-0.004608873,-0.00139564439,-0.0753351,0.03764756,0.07547502,-0.0701719,-0.009285044,0.0233903378,-0.0473139919,-0.0399296246,-0.04776356,0.0367031172,0.05109794,-0.001994273],"error":[0.0,0.0,0.0,0.0,0.0,0.0,0.0,0.0,0.0,0.0,0.0,0.0,0.0,0.0,0.0,0.0,0.0,0.0,0.0,0.0,0.0,0.0,0.0,0.0,0.0,0.0,0.0,0.0,0.0]},{"outputs":[0.5815426,-0.06784515,0.136358008,-0.06441172,-0.9088814,-0.0313064866,0.30049172,-0.019088326,-0.06226242,0.331687033,-0.8034703,-0.141813666,-0.0322856531,-0.08016122,-0.228537083,-0.05172137,-0.420128822,0.00750386342,0.2122276,0.492042661,0.544540942,-0.152059644,-0.4858691,0.804056466,0.266413838,0.7424203,0.193149075,0.3859379,-0.9781201],"inputs":[-0.0273909029,-0.197246745,0.00407341355,0.5130002,0.138387442,-0.19927758,-0.370028734,0.2702241,0.3713491,0.7268442,0.5895552,0.4365561,0.426643133,-0.8585978,0.212390676,-0.9156432,0.4010052,-0.482241869,-0.323226959,0.708843946,-0.367431,-0.5989515,0.6108391,0.19855234,-0.323889136,0.710996568,-0.56083566,-0.224073991,0.92900455],"weights":[[-0.481690824,0.366541773,-0.00721891643,0.06431288,0.2249179,-0.31267193,-0.247189969,-0.171277985,0.196033433,0.2916766,-0.1355623,0.0958843753,-0.203623459,0.369957149,0.363988847,0.0133538553,0.310095936,0.2936925,0.149148181,-0.07890393,-0.0823728442,-0.100482188,-0.397690356,-0.152387545,-0.104911163,0.541251361,-0.355212033,0.433992654,0.480486721],[-0.132747442,-0.223322183,-0.4575443,0.05177047,0.09019377,-0.0226143189,0.183695942,0.41283676,-0.352138251,0.160920158,-0.213703275,-0.34443295,-0.138358831,0.343417436,-0.331698239,0.170913368,0.316651732,-0.0200274922,-0.00156476174,0.2981551,-0.22501193,-0.318265975,0.4501793,0.4514474,-0.0296581611,0.276352972,0.14221786,0.330477417,-0.408266038],[-0.371189654,0.269252032,-0.434215873,-0.02303067,-0.09923947,-0.290870875,-0.009166056,-0.244989589,-0.45813483,0.184824079,-0.0625359,-0.263734519,0.104009673,0.155289814,-0.3653658,-0.186585039,-0.3052229,-0.470136076,0.11307618,0.378334433,0.188595057,-0.0238124263,-0.0585897267,0.160295144,-0.436646283,0.238941744,-0.298466623,-0.207248092,-0.436711878],[-0.402086377,0.219981939,0.35884282,0.2884669,0.361100554,0.4403995,0.400278747,-0.236016318,0.222479954,-0.4934219,0.141821727,0.168862149,-0.156403124,0.363319427,0.268050432,-0.441629171,0.0842950642,0.162461519,-0.0126683284,0.336520582,0.178675652,-0.176307857,0.287828922,0.475358069,0.424542367,-0.1726074,0.202541843,-0.190008163,-0.09170413],[-0.113340721,0.181122661,-0.5213712,-0.305091858,-0.315236121,0.454251647,0.3880013,0.0224675052,-0.139119089,0.215412334,0.113488354,-0.238453478,-0.3961202,0.0536391623,-0.441298127,0.5523175,-0.323021173,-0.182984546,0.179134533,0.122426987,0.09408642,-0.0051386524,-0.4522457,0.245498523,-0.00300304452,-0.09747455,0.257013559,0.467641383,0.30461356],[0.362667739,-0.0501185246,-0.190037161,0.04231439,0.333329231,-0.162377223,-0.107882537,0.128546089,-0.07623061,-0.325168371,0.400532871,0.351832062,0.03471091,-0.31805104,0.435102046,0.294455439,0.132984176,0.0742187649,0.296341777,0.2771029,-0.517982662,0.287030131,-0.374109924,-0.453115523,0.09734947,0.2606334,0.423168868,0.0609857738,-0.187980652],[0.2800506,0.319971621,-0.347772419,0.5084832,0.140394926,0.06041675,-0.180670559,-0.115036316,0.119916931,-0.201675162,-0.393199027,0.191564083,-0.09896297,0.159367964,-0.3549338,0.215007752,0.3619867,-0.456507385,-0.2558927,-0.312760562,0.346504241,0.277991772,0.342495054,0.495774627,-0.332848459,0.4104774,-0.472478837,-0.178247213,-0.175028682],[0.401323467,-0.5053946,-0.1005934,0.263632327,-0.173572376,0.16131708,-0.124882154,0.310033828,0.344732881,0.437285721,0.1631159,0.1200307,-0.0105146077,0.419951022,-0.162115768,0.184872359,-0.362178743,0.137820616,-0.411048353,-0.4330593,-0.244216129,0.2816239,0.2908034,0.213676274,-0.09666882,-0.08318969,-0.5334847,0.47203815,-0.2748118],[0.311391771,0.248557717,-0.0207757521,0.483221918,-0.430417866,0.201217562,-0.2546326,0.206522718,0.445616275,-0.461252064,-0.4703593,0.218055025,0.426812857,0.461414665,-0.3452415,0.102432638,0.08092174,-0.0566434935,0.333733946,0.03509912,-0.265460819,-0.417512745,-0.2966537,0.433303,-0.240863368,-0.517933249,-0.378312528,-0.257068127,0.232311934],[-0.191414326,0.4191111,0.127311215,-0.143136844,0.120550565,-0.5012556,-0.3543702,-0.372833,0.0652653947,-0.07935122,-0.2810295,-0.454329222,-0.5125255,-0.334413737,0.1051228,-0.390105247,-0.203697354,-0.142392427,0.339083284,0.09832539,-0.3966705,0.3898959,0.4228946,-0.3478242,-0.07931249,0.416307867,0.24907127,0.0200499687,0.07616391],[0.271668017,-0.489143372,0.0531650558,0.428363472,-0.48476705,0.132024065,-0.403753459,-0.127256632,-0.247597814,-0.198320881,0.38410762,-0.557283938,-0.0646525845,0.5239732,-0.476496071,0.13986221,-0.0621225722,-0.273938447,0.461293876,0.0660894662,0.3348924,0.5435463,0.130953416,-0.2695846,0.1367135,0.090046,-0.06255152,0.457913756,-0.0332863256],[0.4055006,0.103083245,-0.175025836,0.16849418,0.104062088,0.3741482,-0.07135469,0.112272441,-0.3890493,0.539118946,0.08031088,0.0373177826,0.302563637,0.407002538,-0.457335919,0.361242265,0.140593618,0.07708851,0.372590452,0.491942525,0.0242604129,0.424280345,0.2579538,0.345001042,0.392738223,0.302332371,0.221231058,-0.141958311,-0.05764894],[-0.123108461,-0.08996029,-0.311589777,-0.401901722,0.320657283,-0.07997864,0.210402921,0.127903879,-0.142296478,0.364528358,-0.425278723,0.08368659,-0.498253763,-0.04188035,-0.255398542,-0.06725139,-0.409225047,-0.424332261,-0.475484818,0.0834263638,-0.150098577,-0.425696075,-0.486814618,0.0558795556,-0.452549547,0.403764427,0.468326539,0.3955453,-0.06693281],[0.190631568,0.275974721,-0.379147917,-0.402488559,-0.245429352,0.1728727,0.07128761,-0.158345044,-0.09754374,0.464316338,0.109759636,-0.145147368,-0.22523585,-0.333789676,0.2031669,0.221123666,-0.123938084,0.00759385061,0.0525156856,0.03908578,-0.0787918046,0.2696549,0.228964463,0.241673082,0.212573513,-0.409181535,-0.1853885,-0.162748381,0.205844879],[-0.3696387,0.394273669,-0.00311926263,0.289276659,-0.347991645,0.219976872,-0.376670837,0.49946788,0.023662433,0.334292918,0.208176553,0.168141991,-0.401284426,0.220672727,-0.349458843,-0.08561498,-0.171136186,-0.426196337,0.274469227,-0.1192986,0.166568965,0.0911715254,0.00589363929,-0.07997789,-0.106372014,-0.425197124,0.330293775,-0.448144257,-0.06439989],[-0.1700951,-0.3272066,-0.0924196,-0.211183831,0.138362557,-0.23312439,-0.4298146,-0.339711279,0.03219736,-0.404969543,0.0107272286,0.0945131257,0.298600584,0.358479381,0.201149911,0.3601435,0.3576481,-0.130314812,-0.443490863,0.104199879,-0.239769861,-0.04571354,0.5055691,-0.009923969,0.498505622,0.390221268,-0.07572658,-0.05000318,-0.485504746],[-0.132306084,-0.358870864,0.2570171,-0.49109754,0.05243215,-0.254311621,0.160748914,-0.09942463,-0.208260015,-0.0991773754,-0.0101622641,-0.4195425,-0.1582457,0.24336046,0.526171148,-0.206573308,0.225623026,0.4893661,0.3013824,0.218549758,0.004667347,0.0417887345,0.207041457,0.389755875,-0.0208795629,-0.33661747,0.327598274,-0.334735572,0.342314571],[-0.171028718,0.353759348,0.3071219,0.0957974046,-0.466491222,-0.274766147,0.479269981,0.236103415,0.0653763,-0.307400137,0.08786028,-0.491975784,-0.0150345359,0.07077578,0.4507399,0.08905271,0.009837719,0.474027455,0.276462555,0.436540872,-0.2548233,-0.219901621,0.410661221,0.0615041554,0.283384085,-0.0107367681,0.321519971,-0.06987205,0.375322044],[0.0116719864,-0.0481442362,-0.15505968,0.0196982622,-0.025804583,-0.404655784,0.04188902,0.202320531,-0.0423638,-0.278274119,-0.00148345134,-0.5021312,0.06295804,-0.3302512,0.198790625,-0.2336727,0.111637816,-0.455612332,-0.3690586,0.1819075,-0.110503808,0.468373924,-0.3806893,-0.406137973,-0.202265263,0.238183886,-0.385237783,0.4946848,-0.363314927],[0.322141677,0.100479171,-0.102556542,0.137955442,0.335436463,-0.395526975,0.228862718,-0.244839653,0.145430118,-0.449277461,0.009416626,-0.062336795,0.369806617,-0.4034763,0.190053359,-0.262019724,0.464461118,0.162216976,-0.324104458,-0.320867956,-0.04864407,-0.450650275,-0.07769447,0.303316146,0.28535372,0.241601586,0.149086609,-0.146534845,-0.2872274],[-0.195416451,0.28965956,-0.45849666,0.211621374,-0.009761259,0.09062896,0.104750074,-0.401189685,0.0330547281,0.221037552,-0.4122557,0.492526859,0.403420776,-0.3878618,-0.499773771,0.09270504,-0.202338055,-0.0354471952,0.3456252,-0.07280736,0.425412416,-0.275505543,0.4699429,0.418493152,0.28124705,0.339082956,0.305875,-0.307729781,0.0822469443],[0.319938153,-0.350974262,-0.0482424572,0.006294477,-0.389238983,-0.2692709,-0.304282129,-0.03518628,0.25935027,-0.146048769,0.06950188,-0.354103327,-0.411936253,-0.0525819249,0.465186149,-0.5009754,-0.283084869,-0.0219644681,0.419816554,-0.0379717574,-0.322756916,-0.12215253,-0.330449462,0.3339077,0.3194707,-0.169259578,-0.439858258,0.359415263,-0.382748574],[0.3558712,0.22739695,0.279659748,-0.0009215215,0.05351755,0.155504838,0.00768915238,0.127996653,-0.00210894085,0.3623418,0.3723528,0.309300721,-0.303045869,0.107746929,-0.418729156,-0.169959128,-0.230287448,0.3340475,0.299208969,-0.496904433,0.460855633,0.0888060853,-0.217338577,0.3676742,0.374755919,0.017790705,-0.0424506254,-0.3686894,0.07533894],[0.107536323,0.301589,-0.329589725,-0.194871709,-0.06927503,0.296901941,0.139920861,0.30406028,0.1801435,0.06786463,0.386636853,-0.0944149047,-0.03295199,0.116969839,0.206052378,-0.45051977,0.129816651,-0.473466665,0.2704094,0.5111667,-0.01556753,0.0483606234,-0.0217535142,-0.114862837,0.275004268,-0.353320837,-0.104362339,-0.0899621,0.449863046],[0.188655317,-0.290353,-0.268661022,-0.0252953675,0.41659537,0.421611547,-0.444413334,0.202063859,-0.09512613,0.23694481,0.173824966,0.023320144,0.000523974653,0.1676036,-0.194390282,0.4250924,0.0728481859,-0.0125465915,0.3838081,0.07403454,0.271367729,-0.327015668,-0.1527253,0.033157438,-0.392620683,-0.400535,-0.44317767,-0.204932913,0.280797452],[-0.0078080385,-0.2924605,-0.0422988124,-0.348042667,0.319309056,-0.467940748,-0.1165762,0.1865298,0.3424057,-0.05152985,0.294787079,0.13114053,-0.08230668,-0.383283466,-0.14904964,-0.380271584,-0.0367863178,-0.487516344,0.4226242,-0.313695759,-0.103012331,-0.255989671,0.2554408,0.00494385,0.27549836,-0.412433416,0.00498720957,0.315643817,0.16102162],[-0.0390756354,0.382143676,0.372549772,0.273537248,0.314549267,0.535870969,0.0612159148,-0.261825919,-0.07746246,0.0998967439,0.0493681468,0.444759756,-0.2926691,0.225864381,-0.504024,-0.400407076,0.433809757,-0.110969,-0.417582363,-0.493041,-0.0221130364,0.136834309,-0.4791578,-0.4721187,-0.320502818,-0.08175,-0.21505709,0.0479377769,0.405041516],[-0.09949287,0.2575462,0.0832726359,0.0502095334,0.444487274,0.00275440747,0.0540623851,-0.505573869,0.393852055,0.09169429,-0.3532517,0.25558883,0.334489524,-0.405046761,-0.110885158,-0.08455906,-0.263851,-0.260520846,0.061038658,0.190135717,-0.09184739,0.289326757,0.290557116,-0.00610778155,0.3457314,-0.22116898,0.295945019,0.3461201,0.232810646],[0.189623609,-0.0465022139,0.260241061,-0.4647278,-0.159242034,0.457057118,0.3761211,-0.454849273,-0.08100866,-0.270884544,-0.272356033,-0.04069283,-0.4602465,-0.352630943,0.29202193,0.386532456,-0.219052553,0.118816085,0.0437586457,0.142798737,0.182744637,0.383870333,-0.341386646,0.173935428,0.3450501,-0.00292911357,0.06790579,-0.485952765,-0.51801616]],"weightsDelta":[[0.002038292,0.0146781011,-0.000303122768,-0.03817487,-0.010298091,0.0148292258,0.02753566,-0.0201087054,-0.0276339147,-0.0540880561,-0.0438717045,-0.03248629,-0.0317486152,0.06389249,-0.0158050358,0.06813752,-0.0298407711,0.0358859934,0.0240529086,-0.05274857,0.0273423512,0.04457093,-0.04545555,-0.0147752576,0.0241021849,-0.0529087558,0.0417345427,0.01667445,-0.06913181],[-0.00120967242,-0.008711065,0.000179895345,0.0226557758,0.00611164467,-0.008800753,-0.0163416862,0.0119339852,0.0163999982,0.03209983,0.0260366984,0.0192797538,0.0188419651,-0.0379185043,0.009379871,-0.0404378176,0.01770971,-0.0212973878,-0.0142747657,0.03130488,-0.0162269622,-0.02645167,0.0269766655,0.008768724,-0.01430401,0.0313999467,-0.0247683488,-0.009895844,0.0410278961],[6.46949848E-05,0.000465880061,-9.621057E-06,-0.00121166289,-0.0003268594,0.000470676721,0.000873976445,-0.000638246362,-0.000877095037,-0.00171674427,-0.00139247929,-0.00103110843,-0.00100769487,0.002027935,-0.000501648756,0.00216267142,-0.0009471403,0.00113901438,0.0007634346,-0.00167422916,0.000867840834,0.00141467259,-0.0014427501,-0.000468963757,0.0007649986,-0.00167931349,0.00132464617,0.0005292437,-0.00219422975],[-0.00140200916,-0.0100961169,0.000208498546,0.0262580235,0.007083391,-0.0102000656,-0.01894,0.0138314776,0.0190075822,0.0372036733,0.03017651,0.0223452169,0.02183782,-0.04394751,0.0108712623,-0.046867393,0.0205255374,-0.0246836524,-0.01654444,0.036282327,-0.0188070349,-0.03065746,0.03126593,0.010162944,-0.0165783353,0.03639251,-0.0287064929,-0.0114692748,0.0475512967],[0.00064373354,0.00463563949,-9.57322554E-05,-0.0120563908,-0.003252344,0.00468336744,0.008696315,-0.006350733,-0.008727346,-0.0170820951,-0.0138555663,-0.0102598229,-0.0100268507,0.0201785322,-0.00499154767,0.0215191972,-0.009424315,0.0113335168,0.007596392,-0.0166590568,0.008635264,0.0140763959,-0.014355775,-0.004666323,0.007611954,-0.0167096481,0.013180607,0.005266126,-0.0218332112],[-0.00143439125,-0.0103293052,0.0002133142,0.0268645,0.007246995,-0.0104356548,-0.0193774533,0.0141509417,0.0194465984,0.0380629636,0.03087349,0.02286132,0.022342205,-0.0449625626,0.0111223543,-0.04794988,0.0209996123,-0.0252537671,-0.0169265643,0.0371203348,-0.0192414187,-0.03136555,0.0319880769,0.0103976754,-0.0169612411,0.0372330621,-0.0293695219,-0.0117341792,0.04864958],[0.0002628265,0.00189266028,-3.90860077E-05,-0.004922439,-0.001327882,0.00191214692,0.00355057162,-0.00259290659,-0.00356324087,-0.00697435671,-0.00565701444,-0.004188928,-0.004093809,0.008238585,-0.00203797221,0.00878595747,-0.003847803,0.004627301,0.00310149,-0.006801637,0.00352564547,0.005747176,-0.0058612423,-0.001905188,0.003107844,-0.006822292,0.00538143935,0.0021500783,-0.008914165],[0.0008715335,0.00627606735,-0.000129609325,-0.0163228232,-0.004403261,0.006340685,0.0117737064,-0.008598086,-0.0118157174,-0.0231269877,-0.0187586769,-0.0138904974,-0.0135750836,0.02731917,-0.006757922,0.0291342624,-0.012759327,0.0153441438,0.0102845505,-0.0225542486,0.0116910506,0.019057652,-0.0194358975,-0.006317609,0.01030562,-0.0226227418,0.0178448688,0.007129666,-0.0295593981],[-0.00062945165,-0.00453279261,9.360834E-05,0.0117889075,0.00318018743,-0.004579462,-0.008503377,0.00620983541,0.00853372,0.01670311,0.0135481656,0.0100321975,0.009804395,-0.0197308511,0.004880805,-0.0210417714,0.009215227,-0.0110820709,-0.007427858,0.01628946,-0.00844368152,-0.0137640964,0.0140372775,0.00456279563,-0.007443075,0.0163389277,-0.012888182,-0.00514929136,0.02134882],[-8.69300347E-05,-0.0006259986,1.29277223E-05,0.00162809994,0.000439197844,-0.0006324438,-0.00117435388,0.0008576056,0.00117854425,0.00230677286,0.00187106128,0.00138549064,0.00135403,-0.00272491714,0.000674060662,-0.00290596113,0.00127266336,-0.00153048278,-0.0010258198,0.00224964577,-0.00116610946,-0.00190088211,0.00193860964,0.000630142167,-0.00102792145,0.00225647772,-0.00177991448,-0.000711139757,0.00294836587],[-0.0018835105,-0.0135634933,0.000280104578,0.035275992,0.009516086,-0.0137031414,-0.02544469,0.0185817145,0.0255354829,0.04998078,0.0405402258,0.0300193839,0.0293377265,-0.0590407,0.0146048516,-0.062963374,0.027574759,-0.0331609249,-0.0222264081,0.04874301,-0.0252660587,-0.0411863551,0.0420037955,0.0136532709,-0.0222719423,0.048891034,-0.0385653526,-0.015408244,0.06388215],[0.0010024237,0.007218631,-0.000149074549,-0.0187742468,-0.005064559,0.00729295332,0.0135419257,-0.00988938,-0.0135902474,-0.0266002864,-0.0215759259,-0.0159766246,-0.0156138409,0.0314220674,-0.00777285267,0.0335097574,-0.0146755707,0.0176485851,0.0118291229,-0.0259415321,0.0134468572,0.0219198037,-0.0223548543,-0.00726641156,0.0118533568,-0.02602031,0.0205248781,0.008200427,-0.03399874],[-0.00124461961,-0.008962726,0.000185092475,0.0233102962,0.006288209,-0.009055005,-0.0168137942,0.0122787552,0.01687379,0.033027187,0.0267888922,0.01983674,0.0193863045,-0.0390139632,0.009650853,-0.0416060574,0.01822134,-0.0219126642,-0.014687161,0.0322092734,-0.0166957565,-0.0272158533,0.0277560148,0.00902205147,-0.0147172492,0.0323070846,-0.0254839,-0.0101817334,0.0422131829],[-0.000747224,-0.00538089266,0.000111122747,0.0139946481,0.00377521035,-0.005436294,-0.0100943865,0.00737171527,0.0101304054,0.019828314,0.01608307,0.011909253,0.0116388276,-0.0234225541,0.005794019,-0.0249787532,0.0109394249,-0.0131555609,-0.008817634,0.0193372667,-0.01002352,-0.0163394,0.0166636948,0.005416509,-0.008835698,0.01939599,-0.0152996005,-0.00611274,0.02534325],[0.00115146057,0.008291871,-0.000171238426,-0.0215655342,-0.00581754,0.008377244,0.0155552914,-0.0113596981,-0.0156107973,-0.0305551235,-0.02478376,-0.018351974,-0.0179352518,0.03609379,-0.008928493,0.0384918675,-0.0168574825,0.0202725139,0.0135878362,-0.0297984276,0.0154460883,0.0251787622,-0.0256784949,-0.008346756,0.0136156725,-0.02988892,0.0235764459,0.009419637,-0.03905355],[0.0008257181,0.0059461426,-0.000122795929,-0.0154647529,-0.0041717873,0.00600736355,0.0111547774,-0.008146096,-0.0111945812,-0.0219112318,-0.01777256,-0.0131602921,-0.0128614586,0.0258830376,-0.006402667,0.0276027117,-0.0120885856,0.0145375216,0.009743905,-0.0213686023,0.0110764671,0.0180558171,-0.018414177,-0.00598550076,0.009763867,-0.0214334931,0.0169067867,0.00675486866,-0.0280055],[-0.0006072013,-0.004372564,9.02994E-05,0.0113721844,0.00306777167,-0.004417584,-0.008202794,0.00599032547,0.008232064,0.0161126759,0.0130692553,0.009677572,0.009457822,-0.01903339,0.00470827473,-0.02029797,0.00888948049,-0.0106903343,-0.00716529274,0.015713647,-0.008145208,-0.0132775521,0.0135410773,0.004401507,-0.007179972,0.0157613661,-0.0124326,-0.00496727042,0.0205941647],[0.0008788441,0.006328712,-0.000130696513,-0.0164597426,-0.00444019632,0.00639387174,0.0118724667,-0.008670209,-0.0119148307,-0.02332098,-0.01891603,-0.0140070133,-0.0136889536,0.02754833,-0.006814609,0.0293786451,-0.0128663545,0.0154728536,0.0103708189,-0.02274344,0.0117891179,0.0192175116,-0.01959893,-0.00637060264,0.0103920652,-0.0228125062,0.0179945547,0.00718947127,-0.0298073478],[0.00114008191,0.008209932,-0.000169546256,-0.0213524252,-0.00576005131,0.00829446,0.0154015748,-0.0112474421,-0.0154565321,-0.03025318,-0.0245388485,-0.01817062,-0.0177580155,0.0357371122,-0.008840262,0.038111493,-0.0166908987,0.0200721826,0.0134535609,-0.02950396,0.015293451,0.0249299463,-0.0254247412,-0.008264273,0.0134811234,-0.029593559,0.0233434644,0.009326552,-0.0386676267],[0.0017290574,0.0124512492,-0.000257135223,-0.0323832631,-0.00873574149,0.0125794457,0.023358155,-0.0170579627,-0.0234415028,-0.0458822176,-0.0372158177,-0.02755771,-0.0269319527,0.0541991964,-0.0134072136,0.0578002036,-0.0253135525,0.0304416362,0.0204037819,-0.04474595,0.0231941734,0.0378089622,-0.03855937,-0.0125336656,0.0204455815,-0.04488183,0.03540289,0.0141447261,-0.05864364],[0.00136511377,0.009830426,-0.000203011674,-0.0255670156,-0.006896984,0.00993164,0.0184415728,-0.0134674879,-0.0185073782,-0.03622462,-0.0293823816,-0.021757178,-0.0212631337,0.0427909866,-0.010585173,0.0456340276,-0.0199853852,0.0240340754,0.0161090568,-0.03532752,0.0183121078,0.0298506767,-0.0304431338,-0.009895495,0.0161420573,-0.0354348,0.02795105,0.0111674489,-0.04629993],[5.72959543E-05,0.00041259834,-8.520717E-06,-0.00107308757,-0.000289477146,0.0004168464,0.000774021551,-0.000565251452,-0.0007767835,-0.00152040378,-0.00123322441,-0.0009131827,-0.0008924469,0.00179600436,-0.000444276229,0.00191533123,-0.0008388178,0.00100874761,0.0006761222,-0.0014827511,0.0007685877,0.00125287951,-0.00127774582,-0.000415329356,0.0006775073,-0.00148725393,0.00117314921,0.00046871524,-0.00194328034],[0.00338928355,0.02440683,-0.0005040342,-0.06347739,-0.0171237234,0.0246581212,0.04578645,-0.03343687,-0.04594983,-0.0899379253,-0.0729501247,-0.0540183857,-0.052791778,0.106240794,-0.026280703,0.113299459,-0.0496194065,0.05967143,0.0399953164,-0.08771062,0.04546502,0.0741127953,-0.07558374,-0.0245683827,0.04007725,-0.08797698,0.0693964362,0.027726369,-0.114952758],[-0.001704867,-0.012277049,0.000253537757,0.0319302,0.008613523,-0.0124034528,-0.0230313614,0.0168193113,0.0231135432,0.0452402979,0.0366951451,0.0271721631,0.0265551582,-0.05344092,0.0132196387,-0.0569915436,0.0249594,-0.03001574,-0.02011832,0.044119928,-0.0228696726,-0.0372799933,0.038019903,0.0123583125,-0.0201595351,0.04425391,-0.0349075831,-0.0139468331,0.05782318],[0.000444953068,0.003204186,-6.61707963E-05,-0.00833346,-0.00224804273,0.003237176,0.006010953,-0.00438967068,-0.0060324017,-0.011807262,-0.009577063,-0.00709166052,-0.006930629,0.0139475409,-0.00345019228,0.014874218,-0.006514152,0.007833806,0.005250679,-0.0115148555,0.005968754,0.009729702,-0.009922811,-0.00322539476,0.00526143564,-0.0115498239,0.009110527,0.00363998278,-0.0150912674],[-0.00127728109,-0.009197927,0.0001899497,0.02392201,0.006453225,-0.009292628,-0.0172550231,0.012600976,0.0173165947,0.03389389,0.02749189,0.0203573,0.0198950432,-0.04003777,0.009904113,-0.0426978879,0.0186995063,-0.0224877,-0.0150725832,0.033054512,-0.0171338879,-0.0279300548,0.0284843929,0.009258809,-0.0151034612,0.0331548937,-0.0261526518,-0.0104489243,0.04332095],[0.000873318757,0.00628892332,-0.000129874825,-0.01635626,-0.004412281,0.00635367353,0.0117978239,-0.008615699,-0.0118399216,-0.0231743623,-0.0187971033,-0.0139189512,-0.013602891,0.0273751318,-0.006771765,0.0291939415,-0.0127854636,0.0153755751,0.0103056179,-0.02260045,0.011715,0.0190966912,-0.01947571,-0.00633055,0.01032673,-0.0226690825,0.0178814232,0.007144271,-0.0296199489],[0.00125138648,0.009011456,-0.000186098812,-0.0234370325,-0.00632239738,0.009104237,0.016905209,-0.0123455143,-0.0169655327,-0.0332067534,-0.0269345418,-0.0199445933,-0.019491706,0.0392260775,-0.009703324,0.0418322645,-0.0183204077,0.0220318027,0.0147670144,-0.0323843919,0.0167865288,0.0273638237,-0.0279069226,-0.009071103,0.0147972666,-0.0324827358,0.0256224535,0.0102370912,-0.0424426943],[-6.878968E-05,-0.0004953667,1.02299955E-05,0.00128835184,0.000347547058,-0.0005004669,-0.0009292924,0.0006786424,0.0009326084,0.001825401,0.00148061255,0.0010963697,0.00107147417,-0.00215628766,0.00053339923,-0.00229955185,0.001007087,-0.00121110515,-0.000811754144,0.001780195,-0.0009227685,-0.00150421052,0.00153406512,0.000498645531,-0.000813417137,0.00178560114,-0.001408486,-0.0005627408,0.00233310764]],"gamma":[-0.0744149238,0.04416329,-0.002361915,0.051185213,-0.0235017277,0.05236743,-0.009595394,-0.0318183564,0.0229803175,0.00317368284,0.06876409,-0.0365969576,0.0454391576,0.0272800066,-0.0420380645,-0.0301457066,0.0221679918,-0.0320852548,-0.0416226462,-0.0631252453,-0.04983822,-0.00209178776,-0.123737559,0.062242087,-0.0162445568,0.04663158,-0.031883534,-0.0456862077,0.002511406],"error":[0.0,0.0,0.0,0.0,0.0,0.0,0.0,0.0,0.0,0.0,0.0,0.0,0.0,0.0,0.0,0.0,0.0,0.0,0.0,0.0,0.0,0.0,0.0,0.0,0.0,0.0,0.0,0.0,0.0]},{"outputs":[0.5296462,0.509687],"inputs":[0.5815426,-0.06784515,0.136358008,-0.06441172,-0.9088814,-0.0313064866,0.30049172,-0.019088326,-0.06226242,0.331687033,-0.8034703,-0.141813666,-0.0322856531,-0.08016122,-0.228537083,-0.05172137,-0.420128822,0.00750386342,0.2122276,0.492042661,0.544540942,-0.152059644,-0.4858691,0.804056466,0.266413838,0.7424203,0.193149075,0.3859379,-0.9781201],"weights":[[0.08360819,0.126005262,-0.01238598,0.131210655,-0.197698131,-0.07757529,-0.20952709,-0.0466061123,0.104364544,0.159164011,-0.21382308,0.05865665,-0.0707871541,0.08207584,-0.29256016,-0.142981872,-0.23018156,-0.148451552,-0.0185603611,0.11883045,0.08603822,0.0551425144,0.13995789,-0.09722874,-0.199230313,-0.295424432,0.07220486,-0.0934868455,-0.484725982],[-0.236104548,0.232145175,-0.0205523651,0.255372971,-0.5150465,0.0700596,-0.222647548,-0.125742182,0.156157941,0.144764677,0.340493262,-0.04319373,0.0577960946,0.148194969,-0.374846518,-0.207205027,-0.125674665,-0.21837312,-0.136942476,-0.125233024,-0.12284103,0.0472017229,-0.2928686,0.361425728,-0.231035084,-0.00627372,-0.027357962,-0.234812483,-0.2590082]],"weightsDelta":[[-0.196798533,0.0229593255,-0.04614461,0.021797426,0.3075725,0.0105943577,-0.101688728,0.00645963755,0.0210700855,-0.112245463,0.2719006,0.0479908437,0.0109257158,0.0271271784,0.07733872,0.0175029133,0.142174855,-0.00253936555,-0.07181946,-0.166511059,-0.184276879,0.05145816,0.164421871,-0.272098929,-0.09015651,-0.2512408,-0.06536315,-0.130604371,0.331003428],[0.219404444,-0.0255966242,0.05144516,-0.02430126,-0.342902869,-0.0118113142,0.113369539,-0.007201645,-0.0234903712,0.125138909,-0.303133339,-0.0535034724,-0.0121807344,-0.0302432328,-0.08622249,-0.0195134431,-0.158506244,0.00283105834,0.0800692439,0.185637891,0.205444455,-0.0573690757,-0.183308735,0.3033545,0.100512639,0.2801004,0.0728713,0.145606682,-0.36902523]],"gamma":[-0.338407755,0.3772801],"error":[-0.470353782,0.509687]}]}