{"ModelName":"test","layer":[18,29,29,2],"layers":[{"outputs":[0.9410371,0.224399582,0.929683745,-0.954647839,-0.8163463,0.09414894,0.998084,0.981695235,-0.7256419,0.574763536,0.767340243,0.8608324,0.9909943,0.981493533,0.774993539,-0.9908933,0.994311154,0.993449032,0.217239514,0.999061644,0.862828255,0.8857979,-0.9939672,-0.887961268,0.95900166,-0.8955943,0.9606591,0.8281823,-0.9672239],"inputs":[1.471,0.74,0.671,0.817,0.777,0.606,0.738,0.439,0.0,0.751,0.66,0.683,0.565,0.549,1.344,0.742,0.417,0.0],"weights":[[0.202662274,0.0215288829,-0.7433692,0.5345065,0.398099065,0.2776856,0.582842469,-0.120227225,-0.417247832,0.388870835,-0.320388347,0.5646223,0.3284421,0.225968614,0.153937459,-0.342111051,-0.169627681,0.04280702],[0.605122268,-0.115694843,0.0007989438,0.192041874,-0.06997121,0.07713727,-0.03936595,0.188032418,-0.384217024,-0.554948032,-0.195109144,0.370706171,0.210563958,-0.316352546,-0.230079249,0.240101278,-0.171353161,-0.250059247],[0.0144945914,-0.221037209,-0.122801468,0.664316833,0.243118227,0.628414452,-0.0528076254,0.309262246,0.444594979,0.294392973,0.13273716,0.09839528,0.04674832,-0.242238864,0.646043241,-0.580979943,-0.07274439,0.129531816],[-0.02840093,-0.216941833,0.2192192,0.04271334,-0.288167924,-0.1522422,-0.0233548842,0.133484408,0.1818506,0.05893704,-0.313565016,-0.413749039,0.0674800053,-0.5329232,-0.353623778,-0.4606404,-0.07146126,0.179867059],[-0.569409668,0.6135997,0.000128910571,-0.0730005652,0.388744,-0.380929559,0.495633155,-0.78050226,-0.007564539,0.404346347,-0.441174954,-0.342224658,0.676641,0.313038051,-0.673020363,0.0379504934,-0.54191184,-0.568575144],[0.174142286,-0.42512545,-0.29142642,-0.181885466,-0.43363896,-0.0553916842,0.250775635,-1.24836087,-1.04140925,0.263250381,-0.2852011,0.41327405,-0.163453639,0.6600569,0.369538367,-0.179551557,0.843583,-0.9774004],[0.790590048,-0.311255366,0.07590217,0.383601546,0.254380524,0.7167786,0.231459752,-0.06751676,-0.219576523,0.3855596,0.366558939,0.166250169,1.02428412,-0.8386457,0.57159996,-0.00121969962,-0.30038175,-0.7368436],[-0.186515674,0.670499146,0.656722546,0.8503839,0.3597116,0.5468181,-0.194819376,-0.363768429,-0.365478843,0.03544507,0.417409718,-0.234572574,0.3526365,-0.191546038,0.3990131,-0.228015572,0.17487818,0.0998681262],[0.589613557,-0.273323774,0.288870543,-0.5313781,0.188218191,-0.152320027,0.27089107,1.119794,-0.201652169,-0.497765958,-0.4945984,-0.4369681,-0.255147,-0.8499171,-0.0740430355,0.141476437,-0.632291436,0.554337263],[-0.876170456,0.669526935,-0.9138444,0.0786130354,-0.08362689,-0.459029645,0.477949023,-1.28648472,-0.5215935,0.8595811,0.136100948,0.5106447,0.9324953,0.784017742,0.3819465,-1.51521671,1.08661354,0.2788315],[0.800970554,-0.227684736,-0.116078168,0.3186561,-0.142436743,-0.254248559,0.0339506567,-0.352319926,-0.62797606,0.529745936,0.05430298,-0.0613250621,0.288018525,-0.158054858,-0.523489952,0.568618834,0.156739712,0.2775764],[-0.119926311,-0.505869448,-0.373349845,0.341809422,0.077063866,0.177393883,-0.392267346,-0.08820344,0.123386309,0.267260879,0.10622073,0.290793151,0.87119925,0.445744216,0.6364986,-0.34346965,0.221398383,0.488996953],[0.70298177,-0.0740697458,1.12105215,-0.0593242124,0.553429842,0.6374335,0.119888119,0.189472675,-0.176988736,0.08737381,-0.511697948,-0.290359557,-0.142079726,-0.745369434,0.623256862,0.743028343,-0.922100544,-1.0764904],[0.0772726,0.484956533,0.274429262,0.146729574,-0.446198821,0.5589723,0.4932213,-0.0993292555,-0.267469019,0.287839621,-0.146833837,0.3138114,0.6036286,-0.658352435,0.465935767,0.0755002,0.610320032,-0.6153232],[0.5508748,0.407018185,-0.1363475,-0.4390542,0.0437993929,-0.10735248,0.6258875,0.163099721,-0.645599067,0.132844284,0.562877536,-0.179561138,-0.382335663,-0.4748132,-0.240054742,0.189496532,0.5276293,-0.15757297],[-0.155791238,-0.459617853,-0.320601881,-0.6208147,-0.193839639,-0.189275891,-0.1893189,-0.0487339273,0.15301314,-0.447764635,0.078275,-0.647238851,-0.0930472,0.121317558,-0.23624976,0.106665872,-0.0508179069,0.4438771],[0.541897357,-0.0355372876,0.8880455,0.4022084,0.485764831,0.360091865,0.2853483,0.08297728,0.324723,0.4298289,0.448012382,0.638723731,0.161090747,-0.3896643,-0.157501325,-0.0280719548,-0.732283652,0.125447556],[0.4665232,0.345162421,0.404455721,0.475609928,0.504907131,-0.26806125,-0.243820533,0.177629039,0.426721364,0.474563956,0.215752214,0.3555356,-0.247845277,0.456058741,0.0597011223,0.101034485,0.273608446,0.0234104451],[-0.7344408,-0.299956381,-0.71697253,0.7220173,-0.5513306,-0.3812789,-0.283014178,-0.796527147,0.3261376,0.4871224,0.2232745,0.26566574,1.07174,0.0208000466,0.430057436,-0.483391643,0.475053638,0.186333016],[0.275419861,0.572929144,0.0491763167,0.4909302,0.2976271,-0.173475549,0.610162139,0.0613081045,0.005092739,-0.09649594,0.539627552,0.605408,0.360170335,0.292223245,0.3093989,0.443980128,0.380059063,-0.175233573],[-0.242485225,-0.6880662,0.357456446,1.20615315,0.320135921,0.43020758,-0.122893028,-0.282483459,0.253172159,-0.190171123,-0.5338726,0.09483104,1.27014363,-0.0765740648,0.188471019,0.329629153,-0.006325482,0.1596957],[-0.362667,0.0580627024,0.278919041,0.220208943,0.83415246,0.08043997,-0.177994564,-0.6536729,0.07682045,0.8553434,-0.483208984,0.200932056,0.654895842,0.813868463,0.126945823,-0.3142897,0.038844116,-0.212580591],[-0.2272524,-0.5142641,-0.228115216,0.06018809,-0.3385683,-0.392152518,-0.263376743,-0.301981419,0.2943633,-0.287318349,-0.393470764,-0.305684656,-0.101537392,0.253625333,-0.4809541,0.03595013,-0.0602110773,-0.348299026],[-0.1122039,-0.7582607,-0.147992656,-0.112484559,-0.4410064,-0.405736923,0.3941372,-0.0168135166,-0.359221458,0.157715961,-0.504862964,-0.24624604,0.470828533,0.148095012,-0.34390533,0.363516361,0.00557841873,-0.2174006],[0.253066748,-0.274888068,0.313292682,0.835147738,-0.0257937349,0.485160321,0.2784954,-0.379461139,-0.123112813,0.0211704634,-0.35254994,-0.302809,1.12012661,0.340602845,0.01861026,0.466525972,-0.422736824,-0.3882594],[-0.118098266,0.30128023,0.868422866,-1.16649652,0.337245524,0.06995575,0.0385129824,0.9008519,0.145948008,-0.3844818,-0.2139117,-0.298558354,-1.225008,0.037485905,-0.46136564,0.4097026,-0.3681535,0.09085249],[-0.140515044,-0.504651666,-1.237842,0.767850161,0.700269,0.811951935,-0.2491389,-1.10687649,-0.8556563,0.5506517,0.5083983,0.499597728,1.39269185,0.241409212,0.5079414,-1.1072098,1.18273914,-0.39672],[0.60087955,0.0152742323,0.04697352,0.411878854,-0.2926697,0.218484908,0.04616671,0.1549943,-0.485839248,0.115556158,-0.180914208,-0.391715676,-0.190105885,0.173020557,0.198613688,-0.424827874,0.6576796,-0.192773968],[-0.648507833,0.1900812,0.357312471,-0.3566191,0.0579625,-0.178409189,-0.169580325,-0.242409885,-0.243364751,-0.204048425,-0.004391702,0.2194126,-0.740327239,-0.5481225,-0.4846188,0.6948187,-0.0349233747,-0.18263799]],"weightsDelta":[[-0.07911013,-0.0397970751,-0.03608627,-0.0439381227,-0.04178693,-0.03259058,-0.0396895148,-0.0236093476,0.0,-0.0403886549,-0.0354946926,-0.0367316268,-0.030385606,-0.02952513,-0.072280094,-0.0399046354,-0.02242619,0.0],[-1.00942719,-0.5078016,-0.460452527,-0.5606404,-0.5331917,-0.415848345,-0.506429136,-0.301249862,0.0,-0.51535,-0.452904135,-0.468687177,-0.387713373,-0.3767339,-0.9222775,-0.509174049,-0.286153048,0.0],[-0.0208365433,-0.0104820142,-0.009504637,-0.0115727093,-0.011006115,-0.008583919,-0.0104536833,-0.006218384,0.0,-0.0106378272,-0.009348824,-0.009674616,-0.008003159,-0.00777652161,-0.0190376025,-0.0105103431,-0.0059067565,0.0],[-0.175734624,-0.08840491,-0.08016175,-0.0976038,-0.09282516,-0.07239646,-0.0881659761,-0.0524456166,0.0,-0.0897190347,-0.0788476244,-0.08159535,-0.06749834,-0.06558689,-0.160562426,-0.08864384,-0.04981736,0.0],[-0.121027641,-0.0608840659,-0.0552070364,-0.0672192946,-0.06392827,-0.049859114,-0.0607195124,-0.0361190625,0.0,-0.0617890954,-0.054302007,-0.05619435,-0.0464858077,-0.0451693945,-0.110578626,-0.0610486157,-0.0343089923,0.0],[-0.204079762,-0.102664195,-0.09309145,-0.113346815,-0.107797407,-0.0840736553,-0.10238672,-0.0609048419,0.0,-0.104190283,-0.09156536,-0.09475628,-0.0783855,-0.0761657357,-0.186460376,-0.102941662,-0.05785266,0.0],[-0.003089071,-0.00155398552,-0.00140908686,-0.00171568384,-0.00163168472,-0.00127258815,-0.00154978549,-0.0009218914,0.0,-0.00157708523,-0.00138598715,-0.00143428671,-0.00118648889,-0.00115288922,-0.00282237353,-0.00155818544,-0.0008756918,0.0],[0.007282326,0.0036634407,0.00332184974,0.00404463662,0.00384661276,0.003000061,0.00365353934,0.00217331154,0.0,0.00371789723,0.00326739321,0.003381257,0.00279708649,0.002717877,0.00665360037,0.00367334182,0.00206439826,0.0],[-0.974442363,-0.490202159,-0.444494128,-0.541209638,-0.5147123,-0.401435822,-0.488877267,-0.290809125,0.0,-0.497488946,-0.437207341,-0.452443361,-0.374275982,-0.363677025,-0.8903131,-0.491527021,-0.276235551,0.0],[2.9346962,1.47632575,1.33866835,1.62994337,1.550142,1.208991,1.4723357,0.8758203,0.0,1.49827111,1.316723,1.36260879,1.12719464,1.09527421,2.68132687,1.4803158,0.8319295,0.0],[-0.155670851,-0.0783116445,-0.07100961,-0.0864602849,-0.08222723,-0.06413089,-0.07809999,-0.0464578569,0.0,-0.07947574,-0.06984553,-0.0722795352,-0.059792,-0.0580987781,-0.142230883,-0.0785233,-0.04412967,0.0],[0.351626933,0.176889151,0.160395429,0.19529517,0.185733616,0.144857869,0.176411062,0.1049383,0.0,0.17951858,0.157766,0.163263917,0.135057256,0.131232634,0.321268946,0.177367225,0.0996794254,0.0],[-0.07151123,-0.03597438,-0.0326200128,-0.0397176556,-0.0377731,-0.0294600986,-0.03587715,-0.0213415567,0.0,-0.0365091339,-0.03208526,-0.033203382,-0.0274669249,-0.026689101,-0.06533725,-0.036071606,-0.0202720482,0.0],[-0.009626426,-0.004842662,-0.004391116,-0.00534656,-0.005084795,-0.003965747,-0.00482957345,-0.00287287636,0.0,-0.004914647,-0.004319131,-0.004469646,-0.0036974377,-0.00359273166,-0.00879532,-0.00485574966,-0.0027289053,0.0],[-0.180110857,-0.0906064138,-0.08215798,-0.100034371,-0.09513673,-0.074199304,-0.09036153,-0.0537516437,0.0,-0.09195326,-0.08081113,-0.0836272761,-0.06917922,-0.06722017,-0.16456084,-0.09085129,-0.05105794,0.0],[-0.0149886645,-0.007540185,-0.00683711376,-0.008324771,-0.007917195,-0.0061748,-0.007519806,-0.00447316375,0.0,-0.00765226875,-0.00672503,-0.006959387,-0.005757033,-0.00559400255,-0.0136946058,-0.00756056374,-0.00424899627,0.0],[-0.00950854,-0.00478335842,-0.00433734246,-0.00528108561,-0.00502252625,-0.00391718233,-0.00477043,-0.002837695,0.0,-0.004854462,-0.004266239,-0.00441491045,-0.00365215866,-0.00354873482,-0.008687613,-0.004796286,-0.00269548688,0.0],[0.0359485336,0.01808424,0.0163980071,0.0199659765,0.018988451,0.0148095256,0.0180353634,0.0107283527,0.0,0.018353058,0.0161291864,0.0166912656,0.0138075612,0.0134165511,0.03284489,0.018133115,0.0101907132,0.0],[3.96487641,1.99456739,1.80858755,2.20211,2.09429574,1.633389,1.98917663,1.18326366,0.0,2.02421641,1.77893853,1.84093189,1.52287912,1.47975349,3.62256575,1.999958,1.12396574,0.0],[0.00284322817,0.00143031194,0.001296945,0.00157914159,0.0015018275,0.0011713095,0.00142644614,0.0008485229,0.0,0.00145157333,0.00127568364,0.00132013927,0.00109206245,0.00106113683,0.00259775575,0.00143417763,0.0008060001,0.0],[-0.3963418,-0.199383378,-0.180792212,-0.220130011,-0.209352538,-0.163278818,-0.198844492,-0.11828284,0.0,-0.202347174,-0.177828416,-0.184025466,-0.1522319,-0.1479209,-0.3621233,-0.199922234,-0.112355225,0.0],[0.06951864,0.03497199,0.0317110866,0.038610965,0.03672059,0.0286392216,0.0348774679,0.020746896,0.0,0.03549184,0.0311912335,0.0322782,0.0267015845,0.0259454343,0.06351669,0.035066504,0.019707188,0.0],[-0.0295564644,-0.0148686506,-0.0134822493,-0.0164157934,-0.0156120826,-0.0121762194,-0.014828464,-0.008820727,0.0,-0.01508967,-0.0132612288,-0.0137233632,-0.0113524152,-0.011030931,-0.0270046834,-0.0149088353,-0.008378685,0.0],[0.157989487,0.07947806,0.07206727,0.08774807,0.083451964,0.06508609,0.079263255,0.0471498258,0.0,0.0806594938,0.0708858445,0.07335611,0.0606825724,0.0589641333,0.144349337,0.07969286,0.04478696,0.0],[-0.14096874,-0.07091562,-0.06430322,-0.07829467,-0.0744614,-0.0580741428,-0.07072395,-0.0420702137,0.0,-0.07196977,-0.06324907,-0.0654532,-0.05414503,-0.0526117235,-0.1287981,-0.07110728,-0.039961908,0.0],[-0.358850539,-0.180523053,-0.163690493,-0.1993072,-0.189549208,-0.14783375,-0.180035144,-0.107094079,0.0,-0.1832065,-0.161007047,-0.1666179,-0.137831792,-0.1339286,-0.327868879,-0.181010947,-0.10172718,0.0],[0.0323804952,0.0162893049,0.014770438,0.0179842729,0.01710377,0.01333962,0.01624528,0.00966352,0.0,0.0165314432,0.0145283,0.015034589,0.0124371042,0.0120849041,0.0295849,0.01633333,0.009179244,0.0],[-0.00611533551,-0.00307637569,-0.00278952438,-0.00339648477,-0.00323019433,-0.002519302,-0.00306806085,-0.001825039,0.0,-0.0031221055,-0.00274379458,-0.00283941161,-0.00234885421,-0.00228233822,-0.005587363,-0.00308469,-0.00173357921,0.0],[-0.0525718555,-0.0264467541,-0.0239807721,-0.0291986447,-0.02776909,-0.0216577463,-0.0263752751,-0.0156893581,0.0,-0.02683988,-0.023587646,-0.0244096387,-0.0201924536,-0.0196206328,-0.04803302,-0.02651823,-0.014903103,0.0]],"gamma":[-0.053779833,-0.6862184,-0.0141648836,-0.119466096,-0.08227576,-0.1387354,-0.00209998037,0.00495059555,-0.662435353,1.99503481,-0.105826549,0.239039391,-0.0486140251,-0.00654413737,-0.1224411,-0.0101894392,-0.00646399753,0.0244381614,2.69536138,0.001932854,-0.269437,0.0472594425,-0.02009277,0.107402787,-0.0958319157,-0.243950069,0.0220125746,-0.00415726425,-0.0357388556],"error":[0.0,0.0,0.0,0.0,0.0,0.0,0.0,0.0,0.0,0.0,0.0,0.0,0.0,0.0,0.0,0.0,0.0,0.0,0.0,0.0,0.0,0.0,0.0,0.0,0.0,0.0,0.0,0.0,0.0]},{"outputs":[0.9999958,-0.5161166,0.9870925,0.90350306,0.965842247,0.99994725,-0.9828092,-0.9978424,-0.9997823,-0.814618,0.9054656,0.993185937,-0.7956573,-0.9972712,0.9568361,0.999896348,-0.999735951,-0.147661537,0.9973327,0.730979,0.999619961,-0.999683857,-0.9956919,-0.9987723,-0.8915786,-0.9998795,0.9509866,0.66921103,-0.9952657],"inputs":[0.9410371,0.224399582,0.929683745,-0.954647839,-0.8163463,0.09414894,0.998084,0.981695235,-0.7256419,0.574763536,0.767340243,0.8608324,0.9909943,0.981493533,0.774993539,-0.9908933,0.994311154,0.993449032,0.217239514,0.999061644,0.862828255,0.8857979,-0.9939672,-0.887961268,0.95900166,-0.8955943,0.9606591,0.8281823,-0.9672239],"weights":[[0.7567085,0.290248841,-0.266214728,-0.321456879,0.494970143,0.1392606,0.297041923,0.31072852,-0.208781421,0.09627087,0.244592354,0.139489189,0.5408467,0.5012014,-0.277208447,-0.08861705,0.148346871,0.598239243,0.187120125,0.6458471,0.67353797,0.48716858,-0.0743610561,0.3952395,0.450929463,-0.458236277,0.7793075,-0.03973054,-0.369915336],[-0.273722678,0.47344628,0.1905247,-0.465299249,-0.104495473,-0.0137854833,-0.05946697,-0.192989171,0.296098322,0.236205056,-0.3429094,-0.12426357,0.101865716,-0.438460529,-0.375073552,0.119592436,-0.430654,-0.08319476,0.223977372,-0.009843694,0.290538549,-0.113971926,-0.195582017,-0.105063729,-0.06678163,-0.1858269,0.0776750147,-0.1831343,-0.133602992],[0.0936589,-0.0395709649,0.618157446,-0.368072718,-0.214310676,-1.06668353,-0.0474556722,0.0354115926,0.129217312,-0.07871659,-0.2844172,0.128705874,0.0367180929,-0.362390369,-0.123467021,-0.5196567,0.7340796,0.3865828,0.08654602,0.294293016,-0.0429520756,-0.08476115,0.0077477945,-0.5308505,0.386053234,0.1738733,-0.8208194,-0.207635731,-0.5928807],[0.0533462353,-0.009881321,-0.195159227,0.170596957,0.517245233,0.0470049754,0.402957857,0.137934282,0.279697955,-0.5636661,0.5709653,0.08473173,-0.0340181738,0.120461196,0.05993213,-0.400291562,0.05142942,-0.378335863,-0.5589276,0.504040658,-0.5589427,0.365570217,-0.36947313,-0.387107372,0.654489,-0.0582782924,0.02865008,0.116866872,0.137229383],[0.352365643,-0.0532970168,-0.140192822,0.119056888,0.145961583,0.327789783,-0.194535732,-0.09360234,0.115492091,0.119184271,-0.0347750969,0.22820285,0.4618617,-0.5562888,0.1257588,0.316588342,0.306532174,0.263219744,-0.03732877,-0.2778236,0.553508639,0.214149266,0.137914464,-0.343214124,0.0927044451,-0.155371115,0.6393471,0.009458428,-0.5042565],[0.502914667,-0.156893358,0.164895192,-0.616852462,0.539515138,0.336602122,0.0745756552,0.5722553,-0.5535156,0.560975134,0.222462729,0.160212412,0.234481677,0.578336954,0.140330091,-0.360238761,0.302293867,0.145347625,0.12199074,0.5972934,-0.200704664,-0.194636032,-0.06668702,-0.0316220857,0.274181,0.149247169,-0.0210433751,0.1527708,-0.530174255],[-0.406433582,-0.0248356257,-0.239500239,0.265962064,-0.3468772,-0.2853614,0.29051435,0.326689333,-0.0577732846,-0.057988137,-0.266966254,-0.0205096658,0.54551053,0.113473423,-0.407899916,0.0404654145,0.3051345,-0.394695669,0.130163237,-0.29878667,-0.131908849,-0.5043676,0.439424485,0.293527573,0.126892582,0.685040832,-0.8345884,0.3224503,-0.253773868],[0.00552063575,-0.125140622,0.0270065982,-0.242134631,0.268793941,0.118253425,-0.601416647,0.208322272,0.5111,-0.3658014,-0.6599676,0.005064466,0.118395284,-0.05599473,0.128686219,-0.0173232146,-0.4857897,-0.285586178,-0.0265083,0.003154673,0.3858202,-0.454983473,0.156255,0.0667284,-0.073742,0.316709846,-1.04031634,0.0106504513,-0.273478955],[-0.5229164,-0.0104306443,-0.591794252,0.5300707,0.484139681,0.242705524,-0.5026164,-0.1602289,-0.07225133,-0.494734138,0.173044577,-0.407803327,0.2746335,0.1909171,0.0929561853,0.312951863,0.110043116,0.219900191,-0.09087121,-0.261734426,-0.343087077,0.1952311,0.0011107194,0.291086525,-0.275889635,0.107103378,-0.305077076,-0.100757271,0.7026922],[0.252841175,-0.02874647,0.243630171,-0.01668171,0.0290188659,0.2699544,0.365279824,0.282045156,0.103983782,-0.5677431,0.162330389,-0.345027179,0.5059537,0.135597318,-0.129885852,0.323962927,-0.267617881,-0.6548475,-0.5973314,0.270523161,0.521807551,0.06726212,0.241654187,0.145424053,-0.100703552,0.4031396,0.1666567,-0.2776865,0.0543432236],[0.136619851,-0.0591003224,-0.445703417,0.1949968,0.298038542,0.126278266,0.113238394,0.369769126,-0.197234392,0.0605855,0.0275419485,0.208926812,-0.1836283,0.5382805,-0.08714839,0.08005661,-0.423700571,0.1843058,0.547795653,-0.231629536,-0.355307549,0.198141,-0.37750864,-0.0457793176,0.2727326,-0.7502062,-0.430583864,0.2745497,-0.210060164],[-0.3073081,0.139290869,0.489912659,0.2496321,-0.002926556,-0.382799774,0.2965354,0.365635067,-0.144792259,-0.309919477,-0.31517154,0.0181805678,0.5303537,0.603332043,0.266718447,0.169727132,-0.09074058,-0.310428083,0.471530378,0.363964558,0.330439478,-0.289314717,-0.5672876,0.194340751,0.507059932,-0.305080384,0.267085642,0.01913749,0.110570908],[0.3349084,0.4099192,0.165151954,0.600673854,0.0232774839,-0.303849,0.1379561,-0.000874596357,0.319396943,-0.7304938,0.111911878,-0.374568045,0.865271151,-0.0287063681,0.180241048,0.22152409,0.358012676,-0.6105654,-0.590005934,-0.224117368,0.0378176756,-0.0921682045,0.4187447,-0.556906462,0.658515155,-0.0131251495,0.198659569,0.0740836,0.01536194],[-0.69381,-0.06986645,-0.351077765,-0.17348136,-0.301617742,0.263074726,-0.215634957,-0.118691638,0.514749169,-0.6949833,-0.044626195,-0.8411313,0.614089251,0.03165174,0.616890132,-0.412874669,0.123003148,0.167776734,-0.228915781,-0.110198028,-1.10309553,-0.7186264,-0.242131338,0.0573357865,-0.6446507,-0.0169378854,-0.529851258,0.331912428,0.3018078],[0.491937876,-0.5365645,0.274270028,0.162062928,-0.4311558,0.189964339,-0.369433373,0.100545011,-0.4542621,0.7681104,-0.323688775,-0.0630129,-0.5523131,-0.1263513,0.04261038,0.256096929,-0.330028176,0.4779675,0.4898772,0.4759034,-0.55512327,0.0322395936,0.0628512651,-0.473230183,-0.2564545,-0.4970545,0.7500852,-0.186592788,-0.206883192],[-0.0261314232,0.289109945,0.589960337,-0.0404337458,-0.5165527,0.119429708,0.235718265,0.300223738,-0.05485904,0.05563955,0.418192267,0.355463,0.339810669,-0.039909672,-0.5018038,0.098466374,-0.08283279,0.311507434,0.553238153,0.07717641,0.853441358,0.396910131,-0.07362341,0.414061159,0.7970369,-0.508642435,0.318671674,0.0171308853,-0.07890736],[-0.3169311,-0.09623599,0.20182094,0.7561793,-0.334161282,-0.437944,-0.407280028,-0.768235862,0.194059238,-0.372059,0.2721126,-0.08924509,-0.245346352,-0.111563966,-0.204296187,0.547280133,-0.368430525,-0.340676576,-0.3847028,-0.279462159,-0.2290924,0.3744267,0.170413822,-0.180501863,-0.2267,-0.0969653055,-0.335337073,-0.179216638,-0.140754759],[0.1838897,0.06988453,-0.4242278,0.15089415,0.127445117,0.59645927,0.0375057645,-0.159866259,0.298402965,-0.09709688,-0.0373684838,0.337723166,0.5373543,0.4788287,0.233601645,-0.350256264,-0.2650182,0.238658175,-0.438750982,-0.402108848,0.204624712,0.0920451358,0.240641177,0.06424524,0.419721246,0.131208077,-0.307926923,0.287062079,0.126998171],[0.00184673176,-0.205392525,0.367036134,-0.00515845558,0.160967633,0.41307348,0.3605585,0.202916756,-0.215907827,0.240116581,0.23409985,-0.202006355,0.256099075,0.08514562,-0.150344491,0.145864233,0.1039456,0.378068924,0.0307646077,-0.268119425,0.554458857,0.08961822,0.152927756,-0.224597126,0.0121398475,-0.246945381,0.817008734,0.498751223,0.09792408],[0.33077246,-0.133230314,-0.105673857,0.0947024,0.0323961042,-0.001107727,-0.409196943,-0.0658891052,-0.202212811,0.338121057,0.4981974,0.153295457,0.210230947,0.00719730556,-0.22774078,-0.363093674,-0.2757066,-0.0435762443,0.1449938,0.377816826,-0.2206699,-0.192184061,0.08549248,-0.205093831,0.150686845,0.302465826,-0.0466481261,0.13741301,-0.0224353354],[-0.0164666325,0.09383073,0.650637746,0.1123007,0.09547823,0.3611792,-0.0561510026,0.23432003,-0.4573569,0.63816154,-0.03178623,0.715254962,-0.07789253,0.128427863,-0.3356986,-0.335867733,-0.332473576,-0.199387982,0.04547938,0.350208849,0.122814626,0.00283830264,0.0368406177,-0.151795164,-0.325166643,-0.7607675,0.8210771,0.464552224,-0.678415239],[-0.8011062,0.634029,-0.194542676,0.180514619,0.6741936,0.470316678,0.0626466647,0.009132748,-0.274439156,0.270918,0.327364326,-0.442945272,0.08818177,-0.0624361448,0.0670921355,0.4193393,0.391414285,-0.5824424,0.166876465,-0.107415237,-0.739807963,-0.177978456,0.250164151,0.3333452,0.237088412,0.06502133,-0.6472838,-0.480538279,0.427663416],[0.01945703,0.496707946,-0.389101654,-0.009580901,-0.0962115154,0.131628573,0.5667864,-0.373758763,-0.0133475168,-0.172802687,-0.151216462,-0.439209521,0.144974127,-0.392335773,-0.236562029,0.102120295,0.006767792,-0.393631756,0.09221258,-0.3893548,-0.009655759,-0.308925122,0.468758345,0.139459312,-0.373140574,-0.396614254,0.09841089,-0.116364934,0.393660247],[-0.180524036,0.202625513,0.23748441,0.561286,-0.103428654,-0.00183769711,-0.36598143,-0.25536558,0.234488726,-0.3940807,-0.156141117,-0.158916116,0.130294845,-0.349930733,0.03572651,0.5205886,-0.184786513,-0.16805838,-0.148992583,-0.437102348,-0.197245389,-0.08023747,0.711968839,-0.0115082031,0.110681616,-0.324013531,0.00714130327,0.206156924,0.19320184],[-0.480753481,-0.1371649,0.2493937,0.108271323,-0.08902152,0.265304476,-0.496816516,-0.212987259,0.00209756964,-0.443953842,0.0417194143,-0.451884717,0.4773044,0.09348866,-0.389067233,-0.1417891,0.07259097,0.3997191,-0.119815223,-0.38286534,0.465623528,0.129588947,-0.0253105573,-0.17295824,-0.464016318,0.199294552,-0.156848431,-0.06976782,-0.0001753286],[0.212773785,-0.136156872,-0.06127593,-0.08841723,0.7194491,0.286054164,-0.798943937,-0.191625878,0.5517885,-0.339353263,-0.0375179648,-0.0540300868,-0.5415636,-0.7059613,-0.216370329,0.190758526,-0.444069743,-0.3419934,-0.194089681,0.1365511,-0.1153497,-0.423409671,-0.113646924,0.40725565,0.00314818253,-0.188105866,-0.120683037,0.127513066,0.00364246173],[-0.0299671721,0.435856879,-0.25786218,0.177089453,0.3286072,0.08069047,0.4924437,-0.317186743,0.273630023,0.804362953,-0.0331693441,-0.485510856,-0.0818617,0.549209952,0.3305596,-0.366102785,0.04331122,0.136770487,0.3080146,0.334338665,-0.5528316,0.227821618,-0.3433162,0.212462008,0.08845593,-0.409155428,0.682604432,-0.152671933,0.24425897],[0.113210335,-0.0577479452,-0.0341623053,-0.571525753,-0.460346937,-0.136276811,-0.0106191467,-0.210080579,0.469146371,-0.09725178,0.28332597,0.3034593,0.005521993,-0.2989815,0.0572152957,-0.0198490843,0.621220767,0.346771121,-0.328512728,0.00101552729,0.2889996,-0.168867245,0.245961368,0.116789483,-0.3958849,0.143737689,0.06196694,0.224946082,0.07096938],[-0.421151429,0.366778821,-0.07352528,0.266764253,0.117859341,-0.09928249,-0.0714632347,0.0428741351,0.5482492,-0.252579361,-0.2563407,0.0870901644,0.274723738,-0.004021875,-0.479519218,0.404833764,-0.407703817,0.187501609,0.05053512,0.150658965,-0.10881865,0.14448005,0.19400306,0.292873174,0.278858781,0.318347484,-0.231018648,-0.289783359,0.117041185]],"weightsDelta":[[-3.42195453E-05,-8.159988E-06,-3.3806693E-05,3.471448E-05,2.968533E-05,-3.423599E-06,-3.629398E-05,-3.56980236E-05,2.63869879E-05,-2.09005E-05,-2.7903292E-05,-3.13030068E-05,-3.603617E-05,-3.56906858E-05,-2.81815937E-05,3.60324957E-05,-3.61567836E-05,-3.612543E-05,-7.899622E-06,-3.632953E-05,-3.13755845E-05,-3.22108463E-05,3.61442762E-05,3.22895139E-05,-3.48728E-05,3.25670771E-05,-3.493307E-05,-3.011573E-05,3.517179E-05],[0.2523449,0.0601741336,0.249300435,-0.2559947,-0.2189083,0.02524662,0.267642379,0.263247639,-0.194585353,0.154126391,0.205767021,0.230837524,0.265741229,0.263193548,0.2078193,-0.265714169,0.266630679,0.2663995,0.0582541153,0.26790455,0.231372714,0.237532184,-0.266538441,-0.2381123,0.2571622,-0.240159139,0.257606655,0.222082183,-0.259367049],[-0.0107906954,-0.00257314765,-0.0106605077,0.0109467665,0.009360889,-0.0010795882,-0.0114448415,-0.0112569146,0.008320799,-0.006590705,-0.008798946,-0.009871002,-0.0113635445,-0.0112546012,-0.008886705,0.0113623869,-0.0114015788,-0.0113916928,-0.00249104458,-0.0114560518,-0.009893889,-0.0101572778,0.0113976337,0.0101820845,-0.010996691,0.0102696111,-0.0110156965,-0.00949661,0.0110909734],[-0.165422127,-0.0394465365,-0.16342634,0.167814717,0.143503085,-0.0165501628,-0.175450221,-0.17256929,0.12755844,-0.101035975,-0.13488847,-0.151323169,-0.174203947,-0.17253384,-0.1362338,0.1741862,-0.174787,-0.174635455,-0.0381878875,-0.175622076,-0.151674017,-0.155711785,0.174726546,0.156092077,-0.168580055,0.157433867,-0.1688714,-0.1455837,0.170025408],[0.0286476128,0.00683130557,0.0283019859,-0.0290619582,-0.0248517,0.00286613824,0.0303842686,0.0298853517,-0.0220904239,0.0174972937,0.0233598277,0.0262059718,0.0301684383,0.02987921,0.0235928148,-0.0301653631,0.0302694123,0.0302431677,0.00661333464,0.03041403,0.0262667313,0.0269659869,-0.03025894,-0.0270318463,0.0291945,-0.0272642151,0.0292449556,0.0252120178,-0.0294448063],[-0.000116416872,-2.77607523E-05,-0.000115012335,0.000118100674,0.000100991216,-1.16472829E-05,-0.000123474209,-0.000121446741,8.977007E-05,-7.110471E-05,-9.492862E-05,-0.000106494648,-0.000122597135,-0.000121421785,-9.587542E-05,0.00012258465,-0.00012300747,-0.000122900819,-2.687497E-05,-0.000123595164,-0.000106741558,-0.000109583161,0.000122964921,0.000109850793,-0.000118639291,0.000110795088,-0.000118844335,-0.000102455459,0.00011965647],[-0.07919736,-0.0188853927,-0.07824186,0.08034284,0.06870342,-0.00792354252,-0.08399841,-0.08261914,0.0610697754,-0.0483719036,-0.06457909,-0.07244736,-0.08340174,-0.08260216,-0.06522319,0.08339324,-0.08368088,-0.08360833,-0.0182828028,-0.08408069,-0.07261533,-0.0745484456,0.08365194,0.0747305155,-0.08070925,0.07537291,-0.08084874,-0.06969953,0.08140123],[-0.008374853,-0.00199706643,-0.008273813,0.008495984,0.00726515474,-0.00083788787,-0.008882548,-0.008736694,0.006457922,-0.00511516538,-0.00682902057,-0.007661063,-0.008819452,-0.0087349,-0.006897132,0.008818554,-0.008848971,-0.00884129852,-0.00193334464,-0.008891248,-0.007678826,-0.007883247,0.0088459095,0.007902499,-0.00853473,0.00797043,-0.008549481,-0.00737049058,0.008607905],[0.0008190113,0.000195301327,0.000809130142,-0.000830857141,-0.000710489345,8.19404959E-05,0.000868660863,0.000854397251,-0.0006315468,0.000500233,0.00066783803,0.000749206869,0.000862490444,0.0008542217,0.0006744989,-0.0008624026,0.000865377253,0.0008646269,0.000189069717,0.000869511743,0.00075094396,0.0007709351,-0.000865077833,-0.000772817933,0.0008346464,-0.0007794612,0.0008360889,0.000720790529,-0.0008418024],[-0.8962458,-0.213718653,-0.885432839,0.909208655,0.77748996,-0.0896676555,-0.9505774,-0.93496865,0.6911029,-0.547406,-0.730816543,-0.8198587,-0.9438251,-0.9347766,-0.738105536,0.9437289,-0.9469841,-0.946163,-0.20689939,-0.951508462,-0.8217595,-0.843635857,0.9466565,0.8456963,-0.9133553,0.852965951,-0.9149338,-0.7887626,0.921186149],[0.367938817,0.08773864,0.363499731,-0.3732605,-0.319185585,0.0368115641,0.390243739,0.383835852,-0.283720821,0.22472845,0.300024569,0.336579323,0.3874717,0.383757,0.303016961,-0.387432218,0.388768584,0.3884315,0.0849391,0.390625983,0.3373597,0.3463407,-0.3886341,-0.347186536,0.3749628,-0.350171,0.375610858,0.323813379,-0.378177643],[-0.0142192934,-0.00339073082,-0.014047741,0.0144249545,0.0123351859,-0.00142261281,-0.0150812855,-0.0148336468,0.0109646209,-0.008684813,-0.0115946922,-0.013007381,-0.0149741583,-0.0148306,-0.0117103355,0.0149726318,-0.0150242765,-0.01501125,-0.00328254048,-0.0150960581,-0.0130375391,-0.013384616,0.0150190787,0.0134173045,-0.0144907422,0.0135326413,-0.0145157864,-0.0125140306,0.0146149816],[-1.75366938,-0.41817975,-1.73251176,1.77903354,1.52130175,-0.175451219,-1.859979,-1.82943773,1.35226965,-1.07110035,-1.42997658,-1.60420382,-1.846767,-1.82906187,-1.4442389,1.84657884,-1.85294819,-1.85134149,-0.4048366,-1.86180091,-1.60792327,-1.65072834,1.85230708,1.65475988,-1.78714716,1.66898441,-1.79023588,-1.5433588,1.80246961],[-0.00624960754,-0.00149028061,-0.00617420767,0.006339999,0.005421512,-0.000625261164,-0.006628467,-0.006519626,0.004819127,-0.00381711475,-0.00509605324,-0.0057169525,-0.006581383,-0.00651828665,-0.00514688063,0.00658071227,-0.006603411,-0.006597685,-0.00144272915,-0.00663495949,-0.00573020754,-0.00588275352,0.0066011264,0.00589712057,-0.00636891369,0.00594781339,-0.006379921,-0.005500117,0.006423519],[0.2459488,0.0586489178,0.2429815,-0.2495061,-0.2133597,0.024606701,0.260858536,0.2565752,-0.189653262,0.1502198,0.20055151,0.224986553,0.259005576,0.256522477,0.202551767,-0.258979172,0.259872466,0.259647161,0.0567775667,0.261114061,0.2255082,0.231511533,-0.259782583,-0.232076943,0.250644,-0.2340719,0.2510772,0.21645315,-0.252792954],[-0.0009636139,-0.00022978324,-0.000951988157,0.0009775512,0.000835931569,-9.64077044E-05,-0.00102202944,-0.00100524747,0.00074305106,-0.0005885529,-0.0007857498,-0.000881484943,-0.00101476954,-0.001005041,-0.0007935867,0.00101466617,-0.00101816608,-0.0010172833,-0.000222451388,-0.00102303049,-0.0008835287,-0.000907049456,0.0010178138,0.000909264665,-0.0009820095,0.000917080848,-0.0009837067,-0.0008480515,0.000990429],[0.0007764745,0.000185158,0.00076710654,-0.000787705067,-0.0006735888,7.768477E-05,0.0008235454,0.0008100226,-0.000598746235,0.0004742525,0.0006331526,0.000710295455,0.000817695458,0.0008098561,0.000639467558,-0.0008176121,0.000820432266,0.0008197209,0.000179250041,0.000824352,0.000711942266,0.000730895146,-0.000820148445,-0.0007326802,0.000791297469,-0.000738978444,0.000792665058,0.000683354971,-0.000798081863],[-0.914493442,-0.218069986,-0.9034603,0.927720249,0.793319762,-0.0914933,-0.969931245,-0.9540047,0.70517385,-0.5585513,-0.745696,-0.8365511,-0.9630415,-0.9538087,-0.7531334,0.9629434,-0.9662648,-0.965427,-0.211111873,-0.9708813,-0.8384906,-0.860812366,0.9659305,0.8629147,-0.9319513,0.8703324,-0.9335619,-0.8048219,0.9399416],[0.006812041,0.0016243984,0.00672985567,-0.006910567,-0.005909421,0.0006815315,0.00722499564,0.00710635958,-0.005252824,0.00416063564,0.005554673,0.00623145,0.007173674,0.00710489973,0.005610074,-0.007172943,0.00719768461,0.007191444,0.00157256762,0.00723207276,0.00624589762,0.00641217176,-0.00719519472,-0.006427832,0.006942084,-0.00648308638,0.006954082,0.0059951,-0.00700160349],[0.383737147,0.09150591,0.379107445,-0.389287353,-0.33289057,0.03839216,0.4069998,0.400316745,-0.295903057,0.2343777,0.312906832,0.351031184,0.404108733,0.40023452,0.3160277,-0.404067546,0.405461282,0.405109733,0.08858617,0.407398462,0.351845056,0.361211658,-0.405321032,-0.3620938,0.391062737,-0.36520642,0.391738623,0.3377171,-0.394415617],[0.00308963517,0.0007367539,0.00305235945,-0.00313432212,-0.00268024718,0.000309112016,0.00327693275,0.00322312466,-0.00238244445,0.00188707712,0.00251934933,0.002826305,0.00325365551,0.00322246249,0.00254447688,-0.003253324,0.0032645457,0.00326171517,0.0007132458,0.00328014256,0.002832858,0.00290827244,-0.00326341623,-0.00291537517,0.00314861676,-0.00294043613,0.00315405848,0.00271910732,-0.003175612],[0.00173277466,0.0004131972,0.00171186915,-0.00175783667,-0.00150317571,0.00017336075,0.00183781772,0.00180764031,-0.00133615755,0.00105833833,0.0014129387,0.00158509007,0.001824763,0.00180726883,0.001427031,-0.00182457711,0.00183087052,0.00182928308,0.000400013028,0.00183961785,0.00158876507,0.00163106015,-0.00183023722,-0.00163504365,0.00176585361,-0.0016490987,0.00176890544,0.00152496982,-0.00178099354],[-0.0211793147,-0.00505041657,-0.0209237915,0.0214856435,0.018372979,-0.00211894955,-0.0224632323,-0.02209438,0.0163315535,-0.0129358321,-0.0172700323,-0.0193742,-0.0223036688,-0.02208984,-0.0174422786,0.0223013964,-0.02237832,-0.0223589167,-0.00488926936,-0.0224852357,-0.0194191188,-0.019936081,0.0223705769,0.01998477,-0.0215836316,0.0201565623,-0.021620933,-0.0186393633,0.0217686836],[0.00100910559,0.000240631169,0.000996931,-0.00102370081,-0.000875395432,0.000100959056,0.00107027881,0.00105270464,-0.0007781301,0.000616338162,0.000822844566,0.000923099346,0.00106267631,0.00105248834,0.0008310515,-0.001062568,0.001066233,0.00106530858,0.000232953185,0.00107132725,0.0009252396,0.000949870737,-0.00106586423,-0.000952190545,0.00102836953,-0.0009603757,0.00103014684,0.000888087554,-0.00103718648],[-0.239542916,-0.05712137,-0.2366529,0.243007556,0.207802609,-0.0239658039,-0.254064322,-0.249892518,0.184713632,-0.14630723,-0.195328027,-0.219126642,-0.2522596,-0.249841183,-0.19727619,0.252233922,-0.253103942,-0.252884477,-0.05529876,-0.254313171,-0.2196347,-0.225481659,0.253016382,0.226032346,-0.244115829,0.227975354,-0.244537726,-0.210815489,0.2462088],[0.000142839752,3.40615479E-05,0.000141116427,-0.000144905731,-0.000123912978,1.42908411E-05,0.000151498883,0.000149011248,-0.000110144982,8.724319E-05,0.000116474359,0.0001306655,0.00015042274,0.000148980631,0.000117636053,-0.000150407417,0.000150926207,0.000150795342,3.29747236E-05,0.000151647284,0.000130968459,0.000134455011,-0.000150874,-0.00013478339,0.000145566592,-0.000135942013,0.000145818165,0.000125709557,-0.000146814637],[0.214514136,0.0511530079,0.211926073,-0.217616767,-0.186090231,0.0214617234,0.22751826,0.223782346,-0.165413707,0.131020233,0.174919054,0.196231067,0.22590211,0.223736376,0.176663667,-0.2258791,0.22665821,0.2264617,0.0495208353,0.2277411,0.196686029,0.201922074,-0.2265798,-0.202415228,0.218609244,-0.2041552,0.218987048,0.18878831,-0.220483527],[-0.151197091,-0.0360544361,-0.149372935,0.15338394,0.131162927,-0.0151269762,-0.160362855,-0.157729656,0.11658939,-0.09234766,-0.123289093,-0.138310537,-0.159223735,-0.157697245,-0.124518752,0.159207523,-0.15975666,-0.159618154,-0.0349040255,-0.160519928,-0.138631225,-0.142321765,0.1597014,0.14266935,-0.154083461,0.14389576,-0.154349759,-0.133064628,0.155404538],[-0.0152522074,-0.00363703934,-0.015068193,0.0154728079,0.0132312346,-0.00152595376,-0.0161768161,-0.015911188,0.0117611093,-0.009315693,-0.0124369506,-0.01395226,-0.0160619058,-0.015907919,-0.0125609944,0.01606027,-0.0161156654,-0.0161016937,-0.00352098979,-0.0161926616,-0.0139846085,-0.0143568972,0.01611009,0.0143919606,-0.0155433742,0.0145156756,-0.0155702373,-0.0134230712,0.01567664]],"gamma":[-3.636365E-05,0.268156171,-0.0114668114,-0.175787032,0.0304425955,-0.000123711245,-0.08415966,-0.008899599,0.0008703284,-0.9524022,0.39099288,-0.0151102366,-1.86354959,-0.00664119143,0.2613593,-0.00102399138,0.0008251263,-0.9717932,0.00723886536,0.4077811,0.00328322337,0.00184134569,-0.0225063544,0.00107233343,-0.254552037,0.000151789718,0.227955014,-0.1606707,-0.01620787],"error":[0.0,0.0,0.0,0.0,0.0,0.0,0.0,0.0,0.0,0.0,0.0,0.0,0.0,0.0,0.0,0.0,0.0,0.0,0.0,0.0,0.0,0.0,0.0,0.0,0.0,0.0,0.0,0.0,0.0]},{"outputs":[0.0421697423,3.84930158],"inputs":[0.9999958,-0.5161166,0.9870925,0.90350306,0.965842247,0.99994725,-0.9828092,-0.9978424,-0.9997823,-0.814618,0.9054656,0.993185937,-0.7956573,-0.9972712,0.9568361,0.999896348,-0.999735951,-0.147661537,0.9973327,0.730979,0.999619961,-0.999683857,-0.9956919,-0.9987723,-0.8915786,-0.9998795,0.9509866,0.66921103,-0.9952657],"weights":[[1.06511843,-0.123374783,0.47039026,0.15656355,-0.0552193262,0.912294447,0.5070427,0.467280984,-0.978448331,0.340081871,-0.2779598,0.214701355,0.587554753,-0.234201774,-0.3031759,1.18082857,-0.6485398,0.126725,-0.227732629,-0.0536201224,-0.6269302,-0.9969684,-0.339205,-0.742112756,0.168878168,-0.110404395,-0.4508801,0.03554188,0.2432119],[-0.0547859147,0.109068535,0.287759,-0.4056187,-0.302742034,0.797162831,0.387921184,0.466374516,-0.6221906,-0.09338976,-0.0647643656,-0.393005937,-0.458783776,-0.45749715,0.196093917,-0.0576952919,-0.20142597,-0.0722417459,-0.297077119,-0.06279354,0.0468706377,-0.333914548,-1.13187361,-0.759673536,0.195887864,0.407580853,-0.308038861,-0.2937182,0.197918534]],"weightsDelta":[[-4.95781,2.55881858,-4.893837,-4.479415,-4.788482,-4.957569,4.87260151,4.947133,4.95675135,4.038738,-4.489145,-4.92404747,3.94473386,4.94430161,-4.743831,-4.9573164,4.95652151,0.7320809,-4.9446063,-3.62407017,-4.95594645,4.956263,4.93647146,4.9517436,4.42029572,4.957233,-4.7148304,-3.31783485,4.9343586],[2.84928966,-1.47057188,2.81252432,2.57435274,2.75197577,2.84915137,-2.80031967,-2.843154,-2.84868145,-2.32109237,2.57994461,2.8298862,-2.26706743,-2.84152627,2.72631454,2.84900618,-2.84854913,-0.42073226,2.84170151,2.08277965,2.84821868,-2.84840083,-2.8370266,-2.8458035,-2.54037642,-2.84895825,2.70964766,1.906784,-2.835812]],"gamma":[-4.95783043,2.84930158],"error":[-4.95783043,2.84930158]}]}