{"ModelName":"test","layer":[18,29,29,2],"layers":[{"outputs":[0.3954987,-0.932776,-0.970852733,0.999500155,-0.9999141,0.902996242,0.7959031,0.988862,0.8374834,0.336594164,0.9897187,0.0645360947,-0.289518982,0.945335448,-0.8201762,0.7489786,0.9498715,-0.9945458,-0.999982655,0.633871555,0.544167638,0.993861437,-0.9999984,0.9687848,-0.988273859,0.9999913,-0.999951065,0.9999989,0.046762187],"inputs":[1.85,0.4,0.65,1.833,1.0,1.167,0.0,0.0,0.0,1.85,0.4,0.65,1.833,1.0,1.167,0.0,0.0,0.0],"weights":[[-0.203669876,0.4444657,0.5515439,-0.0617528036,-0.238893777,0.07213001,0.2681542,0.0585714765,0.7888807,-0.114416115,-0.004946291,0.07535323,-0.222516373,0.164875939,0.185405225,-0.04295606,0.665621936,0.008714167],[-0.6181625,0.554999232,-0.109206729,0.5670662,-0.360021979,-0.694745958,-0.328302979,-0.5421427,-0.627067268,0.05762961,0.02094583,-0.0378346741,-0.4144895,-0.0550847873,0.159304112,-0.119213179,-0.122452579,0.348210722],[-0.329251677,0.293030351,0.264852554,-0.5716017,-0.216128036,0.5031769,0.0502194576,-0.4446597,-0.5903931,0.119861223,-0.6865011,-0.4560971,-0.382267267,-0.122044638,0.0161470957,0.152591735,-0.2037867,-0.3819509],[0.476002932,-0.0130235264,-0.16081281,0.452824444,0.0315737464,0.4135119,-0.00213229936,0.639987469,0.356197745,0.290853083,-0.180666357,0.412226468,0.49887833,0.5128307,-0.110474922,0.497318923,-0.187162265,0.249978259],[0.035403572,0.368983865,0.164221317,-0.374586,-0.332417279,-0.6704082,-0.4400424,-0.165873364,-0.161869586,-0.5253529,-0.124440663,-0.4137775,-0.723293066,-0.419065416,-0.4376974,0.1551396,0.210797682,0.0196063444],[-0.40329358,0.248970091,0.155462623,0.303206682,0.730480254,-0.4975001,0.10815756,-1.4191345,-0.21139358,0.06316096,-0.218906313,0.07928548,0.5916578,0.6577838,-0.342115372,0.515530169,0.9135832,0.279569328],[-0.289111435,-0.7690307,-0.100345619,-0.0514318,0.191791221,0.803993762,0.308643281,-0.577804565,0.231511429,-0.0146397715,-0.542815268,-0.8355227,-0.06671849,0.903735936,0.7539323,-0.150898054,0.17946431,0.007465568],[1.30738211,-0.5846597,0.207306668,-0.189535215,-0.204985663,-0.284324765,-0.08493104,-0.6100952,-1.32063937,-0.0333260335,-0.527494252,0.144876227,0.945955336,-0.420799941,0.0495194234,0.737238,-0.512020051,-0.5633227],[0.491198719,-0.62384963,0.14401409,0.324624628,-0.05200444,0.40247938,0.0923351645,0.1412771,0.0445434637,0.242328271,-0.433259428,-0.9513667,-0.5948181,-0.0479237,0.6159563,-0.2856404,0.6885368,0.3396626],[-0.469318032,0.4077038,0.205180421,0.6789355,-0.313465863,-0.6242764,0.286202818,-0.629011,0.9524369,-0.249762937,0.102333084,-0.3298243,0.2214966,0.472069651,0.16897212,-0.8404137,0.677195132,0.7665402],[1.36456537,-0.874441445,0.577108741,-0.21114631,0.262372941,1.1373291,0.07054787,0.56493485,-0.9668523,-0.231662124,-0.5241837,-0.0470197424,0.0251685,-0.697182953,0.175611213,-0.009694784,-0.392505169,-0.849352658],[-0.424029917,0.287448078,-0.339949548,-0.278469056,-0.155290425,0.573656,0.8769771,-0.8779197,1.48170543,0.324740082,-0.482147872,-0.007422174,0.0246288646,-0.264332116,0.485543549,0.0154518709,0.466445446,0.6695955],[0.794986963,-0.534132957,0.273633748,0.325415522,-0.8338428,0.670644164,0.180431932,0.167235047,-0.128486976,-0.451242477,-0.4465247,-0.32000196,-0.011672358,-0.5587962,0.151883,-0.213148624,-0.1718168,-1.00875878],[1.04736042,-0.402402759,0.164575934,0.292531341,-0.128194183,1.31092966,0.9025728,0.0232198332,-1.56227744,-0.198850229,-0.8368959,-0.822012067,-0.980868,0.312198639,0.526245,0.433852732,0.5325358,-0.3671123],[-0.08180383,0.157211155,0.218735874,-0.8023302,-0.0570751727,0.242771015,0.500106633,0.363531053,-0.659996152,-0.09658663,-0.3931404,0.404046625,0.5220468,-0.376000226,-0.197097078,0.381356925,-0.9090727,-0.755588949],[-0.860025346,0.603871047,0.5240262,0.0861962438,0.7937265,0.480632842,0.9123174,-0.5764344,1.30847454,-0.461497128,0.7123587,0.9116431,-0.0723644942,0.474741369,-0.07625172,-0.61715126,1.06502378,0.5586466],[-0.01786644,0.6683181,0.0322895274,0.257509828,-0.106335863,0.056030333,0.07254204,0.00403847964,-0.0498414226,0.0441485755,0.7250895,0.104272217,-0.152952179,0.3092378,0.550003052,-0.3547978,0.484822333,0.303773165],[-0.294677824,-0.6222793,-0.6650256,-0.109160841,-0.5636854,-0.178167716,-0.206492543,0.412348449,0.0543194972,0.09181144,-0.497631162,-0.0378388651,-0.153262123,-0.07892031,-0.290347219,0.5184076,-0.6300815,-0.440735072],[-0.941602767,0.4786171,0.197954535,-0.8579165,0.541480064,-0.4760373,0.3780655,-0.186877117,0.166517362,-0.140083656,-0.303813666,-0.4835647,-0.788009048,-0.243583351,-0.374152362,-0.4362485,-0.001770521,0.5426901],[-0.30943045,-0.0664486662,0.248750865,0.5702104,0.8502366,0.334739238,-0.182516515,0.9426469,-0.433606923,-0.171353281,-0.08214344,-0.3289006,-0.6132508,-0.135930613,0.18593125,-0.3427112,0.0243134052,0.231895924],[-0.8700514,0.0249181446,0.13413918,0.634184,0.9767423,-0.498170525,-0.27687344,0.160162449,0.8152056,0.0478883535,0.431495458,0.0503270328,0.2583543,0.006107726,-0.22028628,-0.284385234,0.6444525,0.575024068],[-0.15485622,-0.295444876,0.7106294,-0.226374581,0.52896136,0.7272502,0.8077048,-0.74181205,0.9379363,0.652910054,0.0158171654,0.4037107,0.180277377,0.352564961,-0.245735317,0.165913,0.331196457,-0.09359081],[-0.552952945,-0.320638955,0.101927064,-0.8387628,0.07847667,-0.6631403,0.198466137,-0.145821676,-0.0490632243,-0.753080845,-0.279593468,-0.335304469,-0.8298796,-0.1479012,-0.256877571,0.349009573,0.102136374,0.267041981],[-0.510114431,-0.09648869,0.456883818,0.789466262,1.02093983,-0.00871835649,0.497966945,-1.07106888,0.5553328,0.112132385,0.0945880339,0.611137,-0.287052572,0.775885463,-0.513375342,-0.5235562,0.5296075,0.6259065],[-0.567355931,0.381531656,-0.435048819,0.290222764,-0.768701732,-1.613963,-0.375625223,-0.503442168,1.1066556,0.2208172,0.930813551,0.8939556,-0.107379913,0.1451088,-0.4945972,-0.918289542,0.6997519,0.1865198],[0.487922162,-0.2215162,0.0559805781,0.7741027,0.2896964,0.650472641,0.247578457,0.252583772,-0.016407134,0.344086617,0.209323138,0.163415819,0.246246129,0.5627964,0.8685796,0.690696657,0.08265071,-0.216608465],[-0.417708516,0.1549517,0.07769184,-0.6295785,-1.00824046,-0.629037559,-0.07952445,0.137672186,-0.6467621,-0.252387255,-0.170482621,-0.010141531,-0.56638,-0.0128498729,-0.137055844,0.42917636,-0.6753023,-0.8016243],[0.4236327,-0.637611866,0.832986951,1.19949925,0.0302177388,0.8759315,0.7646839,-0.256187826,-0.5098451,0.230460167,-0.401768446,0.6841982,0.993972242,-0.241038769,0.51585263,0.1394926,0.238269389,-0.507572949],[-0.9077853,0.104925707,-0.009404726,-0.0696983,-0.182387367,0.09963121,-0.1455748,-0.661967039,0.572168469,-0.104101188,-0.002557716,0.7677298,0.805166841,0.372307479,-0.4790663,0.191675439,0.502991855,-0.367654443]],"weightsDelta":[[2.06913543,0.447380632,0.7269935,2.05012178,1.1184516,1.30523312,0.0,0.0,0.0,2.06913543,0.447380632,0.7269935,2.05012178,1.1184516,1.30523312,0.0,0.0,0.0],[-0.0485911667,-0.0105061978,-0.0170725714,-0.04814465,-0.0262654945,-0.0306518339,0.0,0.0,0.0,-0.0485911667,-0.0105061978,-0.0170725714,-0.04814465,-0.0262654945,-0.0306518339,0.0,0.0,0.0],[0.123059638,0.02660749,0.04323717,0.121928819,0.066518724,0.07762735,0.0,0.0,0.0,0.123059638,0.02660749,0.04323717,0.121928819,0.066518724,0.07762735,0.0,0.0,0.0],[-0.000219125373,-4.73784567E-05,-7.698999E-05,-0.000217111781,-0.000118446143,-0.000138226649,0.0,0.0,0.0,-0.000219125373,-4.73784567E-05,-7.698999E-05,-0.000217111781,-0.000118446143,-0.000138226649,0.0,0.0,0.0],[0.0003055122,6.60566948E-05,0.000107342115,0.000302704779,0.000165141726,0.0001927204,0.0,0.0,0.0,0.0003055122,6.60566948E-05,0.000107342115,0.000302704779,0.000165141726,0.0001927204,0.0,0.0,0.0],[-0.276269823,-0.0597340167,-0.09706777,-0.2737311,-0.149335042,-0.174274,0.0,0.0,0.0,-0.276269823,-0.0597340167,-0.09706777,-0.2737311,-0.149335042,-0.174274,0.0,0.0,0.0],[0.2457258,0.0531299,0.08633608,0.243467763,0.132824749,0.155006483,0.0,0.0,0.0,0.2457258,0.0531299,0.08633608,0.243467763,0.132824749,0.155006483,0.0,0.0,0.0],[-0.10172081,-0.0219936874,-0.0357397422,-0.100786068,-0.05498422,-0.06416659,0.0,0.0,0.0,-0.10172081,-0.0219936874,-0.0357397422,-0.100786068,-0.05498422,-0.06416659,0.0,0.0,0.0],[0.6050627,0.130824372,0.2125896,0.5995027,0.327060938,0.381680131,0.0,0.0,0.0,0.6050627,0.130824372,0.2125896,0.5995027,0.327060938,0.381680131,0.0,0.0,0.0],[0.806302249,0.174335629,0.283295363,0.798893,0.435839057,0.5086242,0.0,0.0,0.0,0.806302249,0.174335629,0.283295363,0.798893,0.435839057,0.5086242,0.0,0.0,0.0],[-0.0137227876,-0.00296708918,-0.00482152,-0.0135966856,-0.007417723,-0.008656483,0.0,0.0,0.0,-0.0137227876,-0.00296708918,-0.00482152,-0.0135966856,-0.007417723,-0.008656483,0.0,0.0,0.0],[0.5786854,0.125121161,0.203321889,0.5733677,0.3128029,0.365041018,0.0,0.0,0.0,0.5786854,0.125121161,0.203321889,0.5733677,0.3128029,0.365041018,0.0,0.0,0.0],[-1.884409,-0.407439768,-0.6620896,-1.86709261,-1.01859939,-1.18870556,0.0,0.0,0.0,-1.884409,-0.407439768,-0.6620896,-1.86709261,-1.01859939,-1.18870556,0.0,0.0,0.0],[0.21045664,0.0455041379,0.07394422,0.2085227,0.113760345,0.132758334,0.0,0.0,0.0,0.21045664,0.0455041379,0.07394422,0.2085227,0.113760345,0.132758334,0.0,0.0,0.0],[-0.703833163,-0.15218015,-0.247292727,-0.6973655,-0.380450368,-0.4439856,0.0,0.0,0.0,-0.703833163,-0.15218015,-0.247292727,-0.6973655,-0.380450368,-0.4439856,0.0,0.0,0.0],[0.5476221,0.118404768,0.192407742,0.542589843,0.296011925,0.345445931,0.0,0.0,0.0,0.5476221,0.118404768,0.192407742,0.542589843,0.296011925,0.345445931,0.0,0.0,0.0],[0.0977410451,0.0211332,0.0343414471,0.096842885,0.052833,0.0616561137,0.0,0.0,0.0,0.0977410451,0.0211332,0.0343414471,0.096842885,0.052833,0.0616561137,0.0,0.0,0.0],[-0.00109583617,-0.000236937543,-0.0003850235,-0.00108576624,-0.000592343858,-0.000691265333,0.0,0.0,0.0,-0.00109583617,-0.000236937543,-0.0003850235,-0.00108576624,-0.000592343858,-0.000691265333,0.0,0.0,0.0],[-6.3813015E-05,-1.37974084E-05,-2.24207888E-05,-6.32266238E-05,-3.449352E-05,-4.025394E-05,0.0,0.0,0.0,-6.3813015E-05,-1.37974084E-05,-2.24207888E-05,-6.32266238E-05,-3.449352E-05,-4.025394E-05,0.0,0.0,0.0],[1.45762682,0.315162569,0.512139142,1.44423234,0.7879064,0.9194868,0.0,0.0,0.0,1.45762682,0.315162569,0.512139142,1.44423234,0.7879064,0.9194868,0.0,0.0,0.0],[0.138777733,0.0300059952,0.04875974,0.137502462,0.0750149861,0.0875425,0.0,0.0,0.0,0.138777733,0.0300059952,0.04875974,0.137502462,0.0750149861,0.0875425,0.0,0.0,0.0],[-0.003490109,-0.000754618144,-0.00122625439,-0.00345803751,-0.00188654533,-0.0022015986,0.0,0.0,0.0,-0.003490109,-0.000754618144,-0.00122625439,-0.00345803751,-0.00188654533,-0.0022015986,0.0,0.0,0.0],[1.86453988E-07,4.03143758E-08,6.551086E-08,1.84740628E-07,1.0078594E-07,1.176172E-07,0.0,0.0,0.0,1.86453988E-07,4.03143758E-08,6.551086E-08,1.84740628E-07,1.0078594E-07,1.176172E-07,0.0,0.0,0.0],[0.0186764579,0.00403815275,0.00656199828,0.0185048357,0.0100953821,0.0117813116,0.0,0.0,0.0,0.0186764579,0.00403815275,0.00656199828,0.0185048357,0.0100953821,0.0117813116,0.0,0.0,0.0],[0.00115570461,0.000249882083,0.000406058331,0.0011450845,0.000624705164,0.000729031,0.0,0.0,0.0,0.00115570461,0.000249882083,0.000406058331,0.0011450845,0.000624705164,0.000729031,0.0,0.0,0.0],[1.62375072E-05,3.51081212E-06,5.70506973E-06,1.60882955E-05,8.77703E-06,1.02427948E-05,0.0,0.0,0.0,1.62375072E-05,3.51081212E-06,5.70506973E-06,1.60882955E-05,8.77703E-06,1.02427948E-05,0.0,0.0,0.0],[-2.17788074E-05,-4.70893156E-06,-7.652013E-06,-2.15786768E-05,-1.17723284E-05,-1.37383076E-05,0.0,0.0,0.0,-2.17788074E-05,-4.70893156E-06,-7.652013E-06,-2.15786768E-05,-1.17723284E-05,-1.37383076E-05,0.0,0.0,0.0],[5.51094263E-06,1.19155516E-06,1.936277E-06,5.460301E-06,2.97888778E-06,3.47636228E-06,0.0,0.0,0.0,5.51094263E-06,1.19155516E-06,1.936277E-06,5.460301E-06,2.97888778E-06,3.47636228E-06,0.0,0.0,0.0],[0.834833,0.180504426,0.293319672,0.827161551,0.451261073,0.5266217,0.0,0.0,0.0,0.834833,0.180504426,0.293319672,0.827161551,0.451261073,0.5266217,0.0,0.0,0.0]],"gamma":[1.1184516,-0.0262654945,0.066518724,-0.000118446143,0.000165141726,-0.149335042,0.132824749,-0.05498422,0.327060938,0.435839057,-0.007417723,0.3128029,-1.01859939,0.113760345,-0.380450368,0.296011925,0.052833,-0.000592343858,-3.449352E-05,0.7879064,0.0750149861,-0.00188654533,1.0078594E-07,0.0100953821,0.000624705164,8.77703E-06,-1.17723284E-05,2.97888778E-06,0.451261073],"error":[0.0,0.0,0.0,0.0,0.0,0.0,0.0,0.0,0.0,0.0,0.0,0.0,0.0,0.0,0.0,0.0,0.0,0.0,0.0,0.0,0.0,0.0,0.0,0.0,0.0,0.0,0.0,0.0,0.0]},{"outputs":[-0.9991913,-0.532313,-0.9999617,-0.935454845,-0.9271364,-0.999401331,0.1951603,0.9943248,0.961308956,-0.7887702,0.918006837,-0.495061874,0.9995969,0.531485736,-0.9999884,-0.9037311,0.9999371,-0.978274643,0.988220334,0.0126228174,-0.9999981,0.906157255,-0.993748069,0.9977669,-0.932659566,-0.194664523,-0.999963939,-0.636081159,0.980451465],"inputs":[0.3954987,-0.932776,-0.970852733,0.999500155,-0.9999141,0.902996242,0.7959031,0.988862,0.8374834,0.336594164,0.9897187,0.0645360947,-0.289518982,0.945335448,-0.8201762,0.7489786,0.9498715,-0.9945458,-0.999982655,0.633871555,0.544167638,0.993861437,-0.9999984,0.9687848,-0.988273859,0.9999913,-0.999951065,0.9999989,0.046762187],"weights":[[0.336046934,0.109070741,-0.422548831,-0.232602119,-0.04470585,-0.268200547,-0.740023434,-0.179939047,-0.425193042,0.0576566868,-0.40700677,0.27038312,-0.558415651,-0.967821836,0.217000276,0.365035862,0.242994264,-0.407451779,0.217155337,0.0367436036,0.446932763,-0.6421707,-0.1241097,-0.151730761,1.10013914,-0.216294676,0.22788386,-0.276649058,0.3362194],[0.225967839,0.0593656227,-0.310759425,-0.01822894,0.173312679,0.396337956,0.352091938,0.518766344,-0.0474384,-0.0277959127,-0.279199839,-0.06819541,0.09225907,-0.04985094,-0.202826858,0.00716067944,-0.303153366,0.120831661,-0.168148786,-0.5800387,-0.3671246,-0.05936089,-0.2435394,-0.006727843,0.241569936,-0.461775839,0.114138842,0.0117742084,-0.368610263],[-0.5035219,0.3928442,-0.245647609,0.278348833,0.444117546,0.267478257,0.1433642,0.343827039,-0.665655434,-0.1762169,-0.315474331,-0.122839808,-0.27619946,-0.6277944,0.6274015,-0.295281172,0.0243319068,-0.0262112729,0.4602783,-0.4378617,-0.218264773,-0.175678134,0.424203277,-0.2354506,0.625256658,-0.410796463,0.462642968,-0.3412769,0.4127382],[0.0563171953,-0.0410317034,-0.107095346,0.0424484052,0.461290151,-0.5931835,-0.0157822389,-0.326655775,-0.05038802,0.4551771,0.177742749,0.232865423,-0.588439167,0.317184925,-0.212443113,0.32778874,-0.0145126572,0.216019,0.6256292,-0.1364831,0.0244852249,-0.364426076,0.585277,-0.00763224,-0.161069036,-0.362978935,-0.14737393,0.203599736,-0.385179967],[-0.37862,0.215128377,-0.358021468,-0.376362741,0.129676,0.0950116739,-0.314010382,-0.180625126,-0.153035313,0.537193954,-0.552179337,0.23652415,-0.284871042,-0.194678947,-0.3184601,-0.05392928,0.464779556,0.0614167042,-0.3537041,-0.315060973,0.181691214,-0.304784,0.210322648,0.250480622,0.134584367,-0.4030693,-0.0296931956,-0.142189592,-0.0223815534],[0.09963023,-0.0133861843,0.25947395,-0.175306,0.136333212,-0.468287766,-0.4977967,-0.3434208,-0.483582616,-0.380713969,-0.349489838,-0.291513,0.08657956,-1.11315644,0.368340582,0.682626843,0.318662226,-0.1926757,0.187174037,-0.113877781,0.04700277,-0.05543437,0.07074184,-0.493970066,0.280848563,-0.106496148,0.03707154,0.123856023,0.474429876],[0.300581276,0.237412691,0.2671784,-0.0357088819,0.200682357,-0.036747843,-0.173835039,-0.762514532,0.179653972,0.520518959,-0.766694963,0.312149316,-0.6113353,-0.492741317,-0.488356769,0.368945479,-0.0230438374,-0.436630368,-0.30279,0.199702635,0.301898777,0.05562822,0.138962716,0.177548587,0.7044427,0.341330826,0.24778676,0.395529836,0.163274109],[0.42397818,0.09686739,-0.331785858,0.5036752,-0.2602,0.1529733,-0.58732146,-0.358629346,0.2565429,-0.22472699,-0.329609156,0.0234582312,0.521091938,0.382620156,-0.6364473,-0.003072071,0.552622139,-0.3379121,-0.374438256,-0.3806154,-0.171147272,-0.363634735,-0.54079777,0.06831134,0.0682012439,-0.124548025,-0.509617448,0.442956477,-0.50512445],[0.275804222,0.293430626,-0.258002549,-0.0277606342,-0.2816475,0.8687358,0.295488745,0.339555234,-0.0195427835,0.2314079,-0.319389,-0.145278186,-0.375867724,0.21412392,-0.396489322,-0.126439407,0.112409323,0.295267373,0.169343516,-0.126704827,0.104943462,0.488698453,-0.0644788444,0.32489714,0.324178666,-0.08119948,0.169161618,-0.005273197,0.6462417],[-0.257161856,-0.053371273,0.152276933,-0.054174047,-0.128853917,0.145759359,-0.100384787,0.092673175,-0.150869131,-0.0273000728,-0.362602055,-0.449316233,0.09925841,-0.371571451,0.3134937,0.0773647,-0.21753934,-0.276954979,-0.409976184,-0.584150136,-0.226476,-0.06845674,-0.439045668,-0.2862664,-0.4651387,0.283342928,0.228289619,-0.433679521,0.08723043],[0.629315138,0.1915311,-0.2627172,0.2406854,0.254489124,0.458459258,-0.1881341,0.3471737,0.477986544,0.4018773,0.3175504,0.29542017,-0.127018839,-0.136236176,-0.06938196,0.195583925,0.277296543,0.193506047,0.124476261,-0.115092494,0.223740965,-0.0253350157,-0.345359027,-0.0028521067,0.009030316,-0.028720323,0.275321871,-0.34525758,0.273902237],[-0.3805331,0.370975852,-0.599811733,-0.163154528,-0.5217037,-0.175492778,-0.174331784,0.341722131,-0.00218733517,0.257179767,-0.205665752,0.18313393,0.282921553,-0.429003865,-0.24155128,-0.0977674946,-0.072832495,-0.419191957,0.3429509,0.1444694,0.160058811,-0.07078001,0.0139424,0.182022288,0.310845077,0.346049249,0.131944418,0.082763724,-0.6307121],[0.239818275,0.15278618,-0.0101014255,0.273380756,-0.363368779,0.6222095,0.325529248,0.193005875,-0.154585019,0.115932383,-0.547593236,1.00733852,0.09272396,-0.561239064,-0.6391101,0.443508,0.0240683965,0.193066627,0.176474139,-0.036093615,0.947490335,0.6359264,-0.605018437,0.8587071,-0.217628717,0.427862585,-0.2444281,-0.179178223,-0.218956783],[-0.03294352,-0.131522864,-0.0366584659,0.226723239,0.118528314,0.2263157,-0.17294997,-0.2687157,-0.0175293982,0.08287841,0.0011217118,0.2433354,0.0412416942,0.608596265,0.284594178,0.356159747,0.296887338,0.2875308,-0.37542215,0.1279733,-0.0190666057,0.103542037,0.4370495,0.3879412,0.190387517,-0.384579867,0.129283726,-0.0180142336,0.334859282],[-0.7649164,0.135308847,0.00228138524,0.134927392,0.460156858,-0.359960824,-0.70656085,0.914558232,-0.477984428,-0.529138565,0.0998836756,-0.8457218,0.3252739,0.346696645,0.3019592,-1.40013838,-0.571503162,0.431251317,-0.295122951,0.2658715,-0.5181945,-0.6960235,0.148340672,-0.5739328,0.260664582,-0.06802408,0.8393391,-0.33328703,-0.149564356],[0.3571317,0.09614193,-0.158369318,0.168749765,0.218142152,-0.335847616,0.123991996,-0.3512905,-0.2757166,0.5284681,0.257942557,0.00778177846,0.6384524,0.0167431366,-0.0227254126,0.1555288,0.0059918263,0.0184029676,0.261348784,0.00191139919,0.06778904,-0.229005158,0.190901488,-0.08397253,0.5084836,0.213131949,0.455905676,0.267228365,0.008401529],[0.8160557,-0.171220139,-0.9493103,0.8055806,-0.623784065,-0.04943374,0.279271066,-1.19429231,-0.0161632989,0.460605,-0.253263652,0.534429669,0.30595234,-0.7881181,-0.606662452,0.385120332,0.5962707,-0.7484992,-0.309703439,-0.644207537,0.689612746,0.289955169,-0.09049246,0.06669512,0.254183024,0.9343551,-0.708437443,0.0296613071,0.5143376],[0.08577912,0.5906817,-0.268869251,0.410064161,0.2498704,-0.713489056,0.344108,0.00536170835,0.6607192,0.343337327,0.190027833,0.316753626,0.6469595,-0.04484804,-0.3675048,-0.574845254,-0.228585243,0.366516352,-0.2881497,-0.4201932,-0.499905944,-0.5327116,0.166005477,-0.274520367,0.309659,0.317501664,0.0447169729,-0.51329416,-0.386265039],[-0.2999441,0.2540486,0.1801678,0.138463691,-0.36498335,0.5305645,-0.004936488,-0.232428327,-0.1349348,0.211894348,-0.54806304,-0.12629351,0.2159524,0.129733145,-0.1944884,0.7681352,0.145629659,-0.603846967,-0.5349489,0.15253526,0.452792734,0.305059552,-0.200416386,0.7655798,0.5519982,0.124485351,0.04288854,-0.296627,0.32921958],[-0.07291998,0.2937782,0.18099232,0.3894888,-0.0304050911,0.548036158,-0.0755994245,0.318858922,-0.0442221463,-0.09356005,0.32017976,0.145026967,0.12984325,-0.0463238321,-0.0873293355,-0.175249234,0.25947547,0.08855827,-0.2769176,-0.5361845,-0.09612931,-0.03604745,0.254292369,0.230304375,-0.219709635,-0.32284236,-0.418004453,-0.79471755,0.381590664],[0.220067471,0.307295918,0.364112437,-0.225610524,0.393808156,-0.3318541,-0.257136375,-0.133930117,-0.172668025,-0.4664484,-0.5575579,-0.2961204,-0.337219745,-0.184084043,0.311151743,-0.0178221837,-0.3422488,-0.125250384,0.508538,-0.20483686,0.218313619,-0.440620959,0.714880168,-0.107874244,0.4928746,-0.5549097,0.147944063,-0.7344131,0.0466325544],[0.08283315,-0.22281304,0.449542135,-0.4834617,0.329775482,-0.399177134,0.43880862,-0.550891161,0.7184335,-0.43555674,0.666652,0.172445431,-0.5485187,0.894542336,-0.09149639,-0.450140625,0.219052523,-0.263818,-0.0150866881,0.2233768,-0.269098818,-0.2701805,0.3812111,0.1497983,-0.7464001,-0.277560145,0.04565264,0.429584235,-0.811127961],[-0.01351504,-0.240557253,0.5578933,-0.06407338,0.453492671,-0.33504948,0.279145747,0.170120135,-0.3335848,-0.252791435,0.231204167,0.444885284,-0.5922848,-0.142151311,0.6158178,0.137390748,-0.4826039,0.40662536,-0.2058309,0.133719191,0.09054321,-0.1559222,0.3807218,0.191468179,0.282882839,-0.348982841,-0.008799172,-0.119503707,-0.07948782],[0.487364441,-0.121261641,0.06721048,0.351863027,-0.5905536,0.008293818,0.442329079,-0.5468277,0.213998228,-0.20539616,0.23085925,0.4587802,0.0733376145,-0.2280948,0.156428128,0.603829563,-0.3555333,-0.5273281,0.182342187,0.3204231,0.377828866,0.575745642,0.158803478,0.313898265,-0.320774734,0.0534303449,-0.326063126,0.125822708,-0.3885438],[-0.291310936,0.3458125,0.203903288,-0.4435374,-0.275825351,-0.400699,-0.4252658,-0.193273157,-0.006179913,-0.609331667,1.06654191,-0.4899916,0.695422,0.55287236,0.246540874,-0.7434792,-0.167280361,0.472173423,0.103161648,-0.394512326,-0.531190336,-0.0547404736,-0.2528713,-0.118530147,-0.155914828,0.130492583,-0.184533924,0.3562857,-0.574229],[0.0306333415,0.0493668,0.185978234,-0.115961745,0.3166313,-0.68097204,-0.355293125,-0.5704809,0.09409428,0.140203372,-0.487499267,0.195985854,0.5838945,0.0619273521,-0.6487219,0.477267236,0.3471598,0.352307767,-0.05779718,0.630388558,0.0595879443,-0.104075611,0.1314758,-0.0178632662,-0.348950654,0.07601012,-0.0595538057,0.395056456,0.115088731],[-0.0392564945,-0.117862567,0.06004453,-0.67155385,0.4802897,-0.172160685,0.178307027,-0.235766187,0.104468189,0.29086414,-0.15063788,-0.00356456987,-0.855788231,-0.6692831,0.08935923,0.424615026,-0.2461884,0.536491632,0.722242951,0.264912456,0.421818763,0.214767858,0.5716767,0.3597931,0.437113971,-0.6638854,0.403852344,-1.372525,-0.4611348],[-0.5191571,-0.460035563,0.16616413,0.05794367,-0.0287158769,0.4022193,-0.371745259,0.5409911,-0.127857685,-0.5300605,0.007649508,0.134193853,-0.0118961511,-0.249443427,0.616392255,0.12417461,0.05157368,-0.237585276,0.464939922,-0.212373942,0.232221946,0.7074335,0.4986695,0.2143557,-0.223630011,-0.384043425,0.355920523,0.08097273,0.127653584],[0.293789923,0.506159,-0.0278792288,-0.0589181967,-0.5314191,0.482306868,0.399862379,-0.47491917,0.0126705067,0.8390525,-0.604261637,-0.339616328,-0.247311592,0.0981786,-0.3306758,0.249140576,0.6034324,-0.8788259,0.07851143,-0.261433661,-0.313404024,-0.0168276355,-0.480052948,0.7580441,0.7819521,-0.16046457,-0.492557675,-0.261834532,0.4590898]],"weightsDelta":[[-0.00170523848,0.00402177172,0.00418594433,-0.004309461,0.004311246,-0.003893373,-0.00343162846,-0.00426359335,-0.003610907,-0.00145126483,-0.004267287,-0.000278254854,0.00124829472,-0.00407592347,0.003536285,-0.00322930817,-0.00409548124,0.00428809971,0.004311541,-0.0027330108,-0.00234624185,-0.004285149,0.004311609,-0.00417702831,0.00426105736,-0.00431157835,0.004311405,-0.00431161141,-0.0002016206],[-0.118831187,0.28026104,0.291701555,-0.300308943,0.3004333,-0.271313459,-0.239136338,-0.297112584,-0.251629531,-0.101132788,-0.29737,-0.0193904582,0.08698862,-0.28403464,0.246429414,-0.225037456,-0.285397559,0.298820347,0.3004539,-0.190452486,-0.16350013,-0.29861474,0.30045864,-0.291080236,0.2969359,-0.3004565,0.300444424,-0.3004588,-0.0140501251],[-1.04850969E-05,2.47288972E-05,2.57383545E-05,-2.6497828E-05,2.6508802E-05,-2.39394049E-05,-2.110025E-05,-2.62158E-05,-2.22025883E-05,-8.92347452E-06,-2.62385111E-05,-1.71092154E-06,7.67546E-06,-2.50618632E-05,2.17437555E-05,-1.9856232E-05,-2.51821184E-05,2.63664824E-05,2.651062E-05,-1.6804619E-05,-1.44264714E-05,-2.634834E-05,2.65110375E-05,-2.568353E-05,2.62002068E-05,-2.65108483E-05,2.65097824E-05,-2.651105E-05,-1.23971608E-06],[-0.00781172328,0.0184237976,0.0191758741,-0.0197417066,0.0197498817,-0.0178356,-0.0157203432,-0.0195315853,-0.0165416189,-0.006648266,-0.0195485055,-0.0012746898,0.005718457,-0.0186718665,0.016199775,-0.01479351,-0.0187614616,0.01964385,0.0197512358,-0.012519964,-0.01074817,-0.0196303315,0.0197515469,-0.01913503,0.019519968,-0.0197514072,0.0197506119,-0.0197515581,-0.000923627],[-0.08024185,0.18924886,0.196974158,-0.202786371,0.202870369,-0.183206916,-0.161479011,-0.200628012,-0.169915155,-0.0682908446,-0.200801834,-0.0130935851,0.0587398671,-0.191797018,0.166403726,-0.151958615,-0.192717329,0.2017812,0.202884272,-0.1286048,-0.110404968,-0.201642349,0.202887461,-0.1965546,0.2005087,-0.20288603,0.202877864,-0.202887565,-0.009487477],[-0.0009392205,0.00221513328,0.002305557,-0.00237358827,0.00237457128,-0.002144413,-0.001890091,-0.002348325,-0.001988835,-0.0007993355,-0.00235035946,-0.000153258719,0.0006875425,-0.00224495912,0.001947734,-0.00177865592,-0.00225573126,0.00236182287,0.002374734,-0.0015053025,-0.00129227585,-0.00236019748,0.00237477152,-0.00230064616,0.00234692823,-0.00237475452,0.002374659,-0.00237477268,-0.000111049681],[0.4884009,-1.15188408,-1.198905,1.23428166,-1.23479283,1.11510909,0.98285985,1.22114456,1.03420734,0.4156598,1.22220254,0.07969555,-0.3575267,1.16739368,-1.01283467,0.92491287,1.17299533,-1.2281636,-1.23487747,0.7827673,0.671992,1.22731841,-1.2348969,1.19635129,-1.22041833,1.2348882,-1.23483849,1.23489761,0.0577465743],[0.013343174,-0.031469617,-0.032754235,0.033720728,-0.0337346941,0.03046492,0.0268518534,0.0333618224,0.0282546729,0.0113558769,0.0333907269,0.00217729248,-0.009767673,0.0318933427,-0.027670769,0.0252687354,0.0320463777,-0.03355358,-0.0337370075,0.0213853,0.0183589067,0.0335304923,-0.0337375365,0.0326844677,-0.03334198,0.0337372981,-0.0337359421,0.0337375551,0.00157764356],[0.0288083088,-0.06794384,-0.0707173645,0.0728040561,-0.07283421,0.06577467,0.05797395,0.0720291659,0.0610026829,0.0245176759,0.07209157,0.004700839,-0.021088697,0.0688586757,-0.0597420149,0.0545559525,0.06918908,-0.07244318,-0.0728392,0.0461715,0.0396374241,0.07239333,-0.07284035,0.0705667362,-0.07198633,0.0728398338,-0.0728369057,0.07284039,0.0034061796],[-0.08485765,0.200135127,0.208304822,-0.214451373,0.214540184,-0.193745628,-0.170767859,-0.212168857,-0.179689288,-0.07221918,-0.212352663,-0.0138467755,0.06211879,-0.202829868,0.175975874,-0.160699815,-0.2038031,0.213388368,0.214554891,-0.1360026,-0.116755858,-0.213241532,0.214558274,-0.207861125,0.212042674,-0.214556754,0.214548111,-0.2145584,-0.01003323],[0.00554057024,-0.0130673274,-0.0136007471,0.0140020708,-0.01400787,0.0126501406,0.0111498646,0.01385304,0.0117323669,0.00471537234,0.0138650415,0.0009040909,-0.00405589258,0.0132432738,-0.0114899082,0.0104924962,0.0133068189,-0.0139326649,-0.01400883,0.008879953,0.00762328459,0.0139230778,-0.014009051,0.0135717774,-0.0138448011,0.0140089514,-0.0140083879,0.0140090585,0.0006550949],[-0.4553001,1.07381642,1.11765063,-1.15062964,1.15110624,-1.03953385,-0.916247666,-1.13838291,-0.964115143,-0.3874889,-1.13936913,-0.07429428,0.333295733,-1.088275,0.944191,-0.862228,-1.0934968,1.14492619,1.151185,-0.7297161,-0.6264485,-1.14413834,1.15120316,-1.11527,1.13770592,-1.151195,1.15114868,-1.15120387,-0.0538328663],[-0.000796366832,0.0018782157,0.00195488613,-0.00201257,0.00201340346,-0.00181825191,-0.00160261174,-0.00199114927,-0.00168633682,-0.0006777581,-0.00199287431,-0.000129948356,0.0005829686,-0.00190350518,0.00165148743,-0.00150812569,-0.00191263889,0.002002594,0.00201354153,-0.00127634883,-0.00109572313,-0.002001216,0.00201357319,-0.0019507223,0.00198996486,-0.002013559,0.002013478,-0.00201357435,-9.415924E-05],[0.07547546,-0.178007409,-0.185273841,0.190740809,-0.1908198,0.172324359,0.151887119,0.18871066,0.159822136,0.0642343462,0.18887414,0.0123158228,-0.0552507,0.180404216,-0.1565193,0.142932221,0.181269854,-0.18979533,-0.190832883,0.12096563,0.103846878,0.189664736,-0.190835878,0.1848792,-0.188598424,0.190834537,-0.190826848,0.190835983,0.008923918],[-3.700615E-05,8.72782839E-05,9.084106E-05,-9.352155E-05,9.356028E-05,-8.449184E-05,-7.447132E-05,-9.25261556E-05,-7.836192E-05,-3.149455E-05,-9.26063149E-05,-6.038534E-06,2.70898054E-05,-8.845345E-05,7.674251E-05,-7.008067E-05,-8.887788E-05,9.30579845E-05,9.35667E-05,-5.93102959E-05,-5.09168531E-05,-9.299394E-05,9.356817E-05,-9.064757E-05,9.247113E-05,-9.35675052E-05,9.356374E-05,-9.356822E-05,-4.37545941E-06],[-0.029607065,0.06982768,0.07267811,-0.0748226643,0.07485365,-0.06759837,-0.05958137,-0.07402629,-0.06269407,-0.0251974668,-0.07409042,-0.004831177,0.0216734149,-0.07076789,0.061398454,-0.0560686,-0.0711074546,0.07445178,0.0748587847,-0.0474516749,-0.0407364331,-0.0744005442,0.07485996,-0.07252331,0.07398226,-0.07485943,0.0748564154,-0.07486,-0.003500621],[0.0001343024,-0.000316749618,-0.000329679635,0.000339407648,-0.00033954822,0.0003066371,0.000270270684,0.000335795165,0.000284390437,0.000114299764,0.0003360861,2.19149988E-05,-9.83141E-05,0.000321014522,-0.000278513267,0.0002543362,0.000322554872,-0.000337725272,-0.0003395715,0.000215248438,0.000184787015,0.000337492878,-0.000339576829,0.000328977418,-0.000335595454,0.0003395744,-0.000339560764,0.000339577,1.5879381E-05],[0.0256007016,-0.06037876,-0.06284347,0.0646978244,-0.0647246242,0.0584511124,0.05151895,0.06400922,0.0542104542,0.0217878018,0.06406467,0.004177433,-0.0187406167,0.0611917377,-0.0530901551,0.048481524,0.0614853539,-0.06437713,-0.06472906,0.041030623,0.03522407,0.0643328354,-0.06473008,0.0627096146,-0.06397115,0.064729616,-0.0647270158,0.0647301152,0.00302692479],[0.01515691,-0.03574728,-0.0372065119,0.0383043848,-0.0383202471,0.0346060134,0.0305018239,0.0378966928,0.032095328,0.01289948,0.0379295237,0.00247325166,-0.0110953925,0.0362286,-0.0314320549,0.0287035126,0.0364024378,-0.0381145179,-0.0383228771,0.0242922027,0.02085443,0.03808829,-0.0383234769,0.0371272638,-0.0378741547,0.038323205,-0.0383216664,0.0383235,0.00179209257],[-0.175902829,0.4148634,0.431798518,-0.4445398,0.4447239,-0.4016185,-0.353987545,-0.439808339,-0.3724809,-0.149704337,-0.440189362,-0.028703209,0.128767073,-0.420449376,0.3647833,-0.3331173,-0.422466844,0.4423363,0.4447544,-0.281922042,-0.242025152,-0.44203192,0.4447614,-0.4308788,0.439546764,-0.444758236,0.444740355,-0.444761634,-0.02079805],[-5.08630137E-06,1.19959432E-05,1.24856288E-05,-1.28540478E-05,1.28593711E-05,-1.16129613E-05,-1.02356926E-05,-1.27172361E-05,-1.07704354E-05,-4.32876141E-06,-1.27282538E-05,-8.299649E-07,3.723352E-06,-1.2157464E-05,1.05478566E-05,-9.632222E-06,-1.22158E-05,1.27903331E-05,1.28602533E-05,-8.15189E-06,-6.998255E-06,-1.2781531E-05,1.28604552E-05,-1.24590342E-05,1.27096728E-05,-1.28603642E-05,1.28598467E-05,-1.28604624E-05,-6.01384E-07],[0.240783215,-0.567882538,-0.591064,0.608504832,-0.60875684,0.549752355,0.484553039,0.6020282,0.509867549,0.204921588,0.602549732,0.0392901637,-0.1762618,0.57552886,-0.499330729,0.455985,0.5782904,-0.605488539,-0.608798563,0.3859068,0.3312942,0.6050719,-0.60880816,0.589805,-0.601670146,0.6088038,-0.6087793,0.608808458,0.0284692459],[-0.0241324734,0.05691597,0.05923933,-0.0609873347,0.0610125922,-0.0550988726,-0.04856428,-0.060338214,-0.0511014238,-0.0205382463,-0.06039049,-0.00393785257,0.01766582,-0.05768232,0.0500453748,-0.045701053,-0.0579591,0.06068503,0.0610167757,-0.03867747,-0.03320393,-0.06064327,0.0610177368,-0.05911315,0.06030233,-0.0610173,0.061014846,-0.0610177666,-0.00285332743],[0.00376032712,-0.008868658,-0.00923068449,0.009503059,-0.009506995,0.008585518,0.00756729674,0.009401914,0.007962635,0.003200274,0.009410059,0.000613597047,-0.002752692,0.008988071,-0.007798081,0.00712114759,0.009031199,-0.009455955,-0.009507647,0.00602673134,0.00517384335,0.00944944751,-0.009507797,0.009211023,-0.009396322,0.009507729,-0.009507346,0.009507801,0.000444606063],[0.0165727679,-0.03908655,-0.0406821,0.0418825261,-0.04189987,0.0378386751,0.0333511,0.0414367467,0.03509346,0.0141044632,0.0414726473,0.00270428625,-0.01213185,0.0396128371,-0.03436823,0.0313848034,0.0398029126,-0.04167492,-0.0419027433,0.0265614167,0.0228025112,0.0416462421,-0.0419034027,0.0405954458,-0.0414121039,0.0419031046,-0.04190142,0.041903425,0.00195949781],[0.217143759,-0.512129366,-0.5330349,0.548763454,-0.5489907,0.495779127,0.436980933,0.5429227,0.4598101,0.184802949,0.543393,0.03543276,-0.158956885,0.519024968,-0.4503078,0.41121763,0.5215154,-0.546043336,-0.549028337,0.348019481,0.29876864,0.5456676,-0.549037,0.5318996,-0.5425998,0.5490331,-0.549011,0.5490373,0.02567421],[-0.000123946054,0.000292324374,0.0003042573,-0.000313235185,0.0003133649,-0.000282991648,-0.000249429519,-0.000309901254,-0.000262460439,-0.000105485859,-0.000310169737,-2.02250849E-05,9.073288E-05,-0.0002962604,0.0002570365,-0.000234723775,-0.000297681952,0.000311682525,0.000313386379,-0.000198650159,-0.000170537693,-0.000311468058,0.000313391327,-0.000303609238,0.000309716939,-0.0003133891,0.000313376484,-0.000313391472,-1.46548873E-05],[-0.2184767,0.515273035,0.536307,-0.55213207,0.5523607,-0.49882248,-0.439663351,-0.5462554,-0.462632656,-0.18593736,-0.5467287,-0.0356502645,0.159932643,-0.522211,0.453072,-0.4137419,-0.524716735,0.5493952,0.552398562,-0.35015583,-0.300602645,-0.5490172,0.552407265,-0.535164654,0.545930564,-0.552403331,0.5523811,-0.552407563,-0.025831813],[0.0211991854,-0.0499978662,-0.052038826,0.05357436,-0.05359655,0.04840164,0.0426613241,0.0530041419,0.0448900759,0.0180418361,0.0530500636,0.003459209,-0.0155185517,0.05067107,-0.04396239,0.0401461162,0.0509142056,-0.0533088036,-0.0536002219,0.0339762457,0.0291680135,0.05327212,-0.0536010675,0.0519279838,-0.05297262,0.0536006875,-0.05359853,0.0536010973,0.002506507]],"gamma":[-0.004311616,-0.300459117,-2.651108E-05,-0.0197515786,-0.202887788,-0.00237477524,1.23489892,0.0337375924,0.07284047,-0.214558616,0.0140090734,-1.15120506,-0.00201357645,0.190836191,-9.356832E-05,-0.07486008,0.000339577382,0.06473018,0.03832354,-0.4447621,-1.28604761E-05,0.6088091,-0.0610178337,0.009507812,0.04190347,0.5490379,-0.000313391822,-0.552408159,0.0536011532],"error":[0.0,0.0,0.0,0.0,0.0,0.0,0.0,0.0,0.0,0.0,0.0,0.0,0.0,0.0,0.0,0.0,0.0,0.0,0.0,0.0,0.0,0.0,0.0,0.0,0.0,0.0,0.0,0.0,0.0]},{"outputs":[7.57135963,9.028945],"inputs":[-0.9991913,-0.532313,-0.9999617,-0.935454845,-0.9271364,-0.999401331,0.1951603,0.9943248,0.961308956,-0.7887702,0.918006837,-0.495061874,0.9995969,0.531485736,-0.9999884,-0.9037311,0.9999371,-0.978274643,0.988220334,0.0126228174,-0.9999981,0.906157255,-0.993748069,0.9977669,-0.932659566,-0.194664523,-0.999963939,-0.636081159,0.980451465],"weights":[[-0.5787157,-0.00891109649,-0.0417316966,0.162683,-0.222917125,-0.400235951,0.226748869,0.390894,-0.033216022,-0.0190346353,-0.168637112,-0.241053477,-0.6931185,-0.03901234,-0.7387002,0.0511864759,0.463956833,0.486932248,0.132569477,-0.082724,-0.6570187,0.886674643,-0.964914,0.3647237,0.4239423,0.129738539,-0.9607447,-0.123183124,0.04688381],[-0.140457019,-0.140711948,0.251704574,-0.3038939,-0.219779164,-0.09623357,0.3742007,1.0997231,0.622289538,-0.136373386,0.265203416,-0.426059157,-0.464903444,0.158433989,-0.9049982,-0.174272716,0.57087034,0.207032412,0.6923555,-0.150785357,-0.5530038,-0.171271116,-0.9681525,0.3633297,-0.7453599,0.190540463,-0.4455185,-0.1923423,0.748476]],"weightsDelta":[[-3.56847143,-1.90108109,-3.57122278,-3.34084558,-3.31113768,-3.5692215,0.6969876,3.55109143,3.43318,-2.816982,3.27853251,-1.768044,3.56992,1.89812672,-3.57131815,-3.22754884,3.571135,-3.4937706,3.5292902,0.04508062,-3.57135272,3.23621345,-3.54903173,3.56338453,-3.33086276,-0.695217,-3.571231,-2.27167463,3.50154471],[-1.02811289,-0.5477208,-1.02890551,-0.962531567,-0.95397234,-1.028329,0.200809211,1.0231055,0.989134,-0.8116011,0.9445785,-0.5093914,1.02853024,0.5468696,-1.028933,-0.92988956,1.02888024,-1.00659072,1.01682436,0.0129881846,-1.02894306,0.9323859,-1.02251208,1.02664721,-0.959655344,-0.200299084,-1.0289079,-0.6544925,1.00883055]],"gamma":[3.57135963,1.028945],"error":[3.57135963,1.028945]}]}