{"ModelName":"test","layer":[18,29,29,2],"layers":[{"outputs":[0.820694566,0.7737885,-0.9584537,0.930155456,0.673481643,-0.594134033,0.671750844,0.862899959,-0.88552314,0.06538549,-0.893174648,0.7096484,0.141098425,-0.9277561,0.331098646,0.09825389,0.963757932,0.23764883,-0.5887748,0.935655951,0.7788805,-0.254209518,0.55900687,-0.687630951,0.789736867,0.4746936,-0.870474339,-0.992436647,0.411826164],"inputs":[0.972,0.718,2.331,1.055,0.583,0.769,0.65,1.038,0.432,0.972,0.718,2.331,1.055,0.583,0.769,0.65,1.038,0.432],"weights":[[0.07925158,0.114288591,0.261517256,-0.39568305,0.461565673,-0.237292022,-0.391928226,-0.201982021,-0.362297744,0.409392178,0.365751475,0.0328735448,0.280186057,0.197367847,0.00115259574,-0.3251082,0.2765904,-0.237280563],[0.151345551,0.360623479,0.120792612,-0.06050247,0.333036065,0.442142636,0.2696234,-0.2458111,0.2684232,-0.000292682176,-0.356802076,0.3693858,-0.0728265941,-0.469522178,0.469873756,0.07291834,-0.01625502,-0.212952569],[-0.31637913,0.0130931018,-0.4977156,0.165299058,-0.39946565,-0.629245,-0.4711403,0.0645218045,0.329562366,0.4717004,0.379683882,-0.03691566,-0.173660368,-0.444384843,0.09754679,0.2684448,-0.1338905,-0.2318986],[-0.282874972,-0.299999624,0.263296366,0.3937448,-0.125120655,0.282528371,0.0324265845,0.08780961,-0.289144754,-0.182604447,0.04246508,0.3173175,0.137369946,-0.252546579,-0.2112256,-0.24775295,0.439790368,-0.27400887],[-0.3462615,0.291523933,-0.0365642458,-0.06611471,-0.321817577,-0.259351015,-0.49159956,0.20624432,-0.242906943,-0.303949445,-0.5211549,0.2909294,0.455686718,-0.07372684,0.136503071,0.09759252,-0.255380154,-0.250457674],[-0.0606739856,-0.203889415,-0.349547744,-0.222178474,-0.192463636,0.100602984,0.365111768,0.334198326,-0.476530075,-0.4838253,-0.159435049,0.144468978,-0.267624617,-0.251243472,-0.296296984,0.0767676756,0.188438877,0.0281486027],[0.313533723,0.338179618,0.712399065,0.167643726,0.430747956,0.17592074,0.0521039665,-0.195539668,0.1501563,-0.165554672,-0.08335124,-0.193227,-0.17418921,-0.414818883,0.5101193,0.5659008,0.307597041,0.1957697],[0.424276054,0.351358116,-0.100010216,-0.5981841,0.0253522433,-0.304523975,-0.39330402,0.416094452,-0.136882648,-0.00456173345,0.4391163,0.1460908,0.126209438,-0.164502233,0.08932627,-0.502128661,0.3357543,0.00777549576],[-0.247922361,0.2967532,-0.129902527,-0.07235825,0.128567651,-0.7578594,-0.8259825,0.11008396,-0.101046048,0.429041445,0.2154348,-0.239881292,0.0874598548,-0.430675328,-0.319775969,-0.268495828,0.106389485,0.17725639],[-0.6377677,0.08543188,-0.7624052,-0.02738723,-0.296197563,0.22697255,-0.496647537,0.234916523,-0.3767513,0.171328813,-0.118050031,0.00591837056,-0.326863468,-0.5292058,-0.538254142,-0.3071071,0.013276658,0.188748509],[-0.2789867,-0.169669986,-0.320349485,-0.0257025715,0.5351234,0.55141443,0.341004282,-0.1757459,-0.363224626,-0.3946793,0.241674155,0.326651633,-0.217684925,-0.2979697,0.365254432,0.456552058,-0.372642577,-0.311353266],[-0.110467568,0.07124607,0.071124,0.04615721,0.0137899844,0.409980148,0.370898843,-0.339441955,-0.4058055,0.103920951,0.0476862043,0.2228139,-0.2985948,-0.01593235,0.07237705,0.243482456,-0.110284612,-0.169932857],[0.246634141,0.144818783,0.204230621,-0.3033909,0.431257,-0.40089184,0.3362263,-0.4282929,-0.259764463,-0.00861011352,0.145897627,-0.166158155,-0.3489074,0.0162329488,-0.437003434,0.519128263,0.4117034,-0.378741324],[-0.3349273,0.07488657,0.234415352,-0.4255366,-0.03821135,0.247586146,0.312964618,-0.346910834,0.183085427,-0.162758768,0.303945959,-0.324518234,-0.4409324,-0.10277734,0.185335591,-0.109067984,-0.378047,-0.08606383],[0.0250464045,-0.170497373,0.462850481,0.213838845,0.382187843,0.0843206942,0.339502543,0.008015547,0.108693153,0.350604326,0.08940767,-0.145685375,0.4016404,-0.145466089,0.214602113,0.12087635,0.225245208,0.380261928],[0.2971799,0.370955974,0.1518223,0.7831516,0.0521537624,0.6072427,0.169592887,0.168410361,-0.06912648,-0.2613059,0.1311075,0.2174671,0.475013345,0.4286698,0.223354831,0.4026306,0.277551264,0.3695238],[-0.0707200542,0.161273941,0.348340154,-0.102820367,-0.01584181,-0.254543543,-0.105430439,-0.36449945,0.219543934,0.135967627,0.145641014,0.105053507,0.207964733,0.1873886,0.463660777,0.560750246,0.3536502,0.0229475442],[-0.259746671,-0.134701326,0.2491894,0.240083724,-0.448273242,-0.4125113,-0.5465038,0.114699773,0.375839531,-0.22350125,-0.5010052,0.132578343,0.0154357748,-0.4935094,-0.04930617,0.145127326,-0.489511251,0.394962132],[0.427127063,-0.3044894,-0.432104051,-0.63149935,0.045711156,-0.5043226,-0.5841032,0.146365926,0.28034997,0.1275865,-0.17376034,0.124817029,-0.284058839,0.07139224,0.154043823,0.22860533,-0.285983562,-0.4928688],[0.300923139,-0.00217148126,-0.06909221,-0.007145143,-0.370972335,0.221930176,-0.368488729,0.4475745,-0.480079532,0.37944153,0.429164141,-0.0394889936,0.386363059,0.248181626,0.0293716434,0.33059305,0.451719165,0.0561613478],[-0.29330802,-0.239256546,0.2816902,0.2276491,0.342802644,-0.01603543,-0.03597679,-0.03350629,-0.2516502,-0.3461061,0.4495484,-0.110294759,0.452671647,0.305446148,0.3710778,0.100447156,-0.435630649,0.07390591],[0.0009627209,-0.05880378,-0.5495392,-0.06891408,0.340851575,0.163277715,-0.3979386,-0.377607077,0.254621625,-0.162491128,0.248147488,-0.03796414,-0.3194344,-0.010789725,0.184814066,-0.275813073,0.0837484,-0.520165861],[-0.06031078,-0.310596466,0.5451073,0.6249723,-0.351091355,0.325877219,0.1270748,0.643169343,0.568748057,0.264166921,0.54289937,0.013799442,0.267462224,-0.09400711,0.3471556,0.6089601,-0.08126392,0.0228499211],[-0.08490119,0.208922073,-0.07258171,-0.397948533,0.0900147,0.14735204,0.209102809,-0.436284959,0.176389337,0.09909456,0.406644255,-0.0321354643,0.188530147,0.1929117,-0.351359874,0.371003568,-0.150865108,-0.464858145],[0.434226453,0.182439238,-0.001444247,0.0298094787,-0.4333476,0.445634,0.274035215,0.06388332,-0.179789677,0.182258129,0.376495361,0.0484227873,-0.479893833,-0.1657532,-0.181574017,-0.15853022,0.3947409,0.495153576],[0.245787919,-0.223259658,0.219510764,-0.367408156,-0.2115465,0.5690813,0.5580689,0.5050136,-0.3728996,0.165109992,0.5147394,-0.0298903715,0.599996,0.269042671,0.540745735,0.220594749,-0.365597457,0.120319426],[0.444863766,0.378837615,0.131015345,-0.0514340065,-0.176281869,-0.481795162,-0.181153268,-0.4879445,-0.3267059,-0.3714408,0.07253661,0.0611431561,-0.383779764,-0.157237738,0.290244281,-0.3548085,-0.2933759,-0.374522179],[0.04755432,0.337595165,-0.08797043,-0.1334327,-0.09643616,-0.5459923,0.153982818,-0.3117843,0.0440624,-0.4168799,0.118222706,-0.374503344,-0.0552301034,-0.268665344,-0.407786846,0.0335558131,-0.12901184,-0.567797244],[-0.122472174,-0.3023168,0.441370845,-0.0441492572,0.18525885,-0.3226126,0.2778961,0.3848322,-0.183953732,0.04086726,-0.0506489836,0.160325721,-0.06558982,0.3263182,-0.0365920551,0.2973768,-0.369134128,-0.3915138]],"weightsDelta":[[0.3049719,0.225277588,0.7313678,0.3310137,0.182920381,0.2412792,0.2039421,0.325679868,0.135543063,0.3049719,0.225277588,0.7313678,0.3310137,0.182920381,0.2412792,0.2039421,0.325679868,0.135543063],[-0.995479047,-0.7353436,-2.38730621,-1.08048391,-0.5970826,-0.7875755,-0.665701,-1.06307328,-0.442435145,-0.995479047,-0.7353436,-2.38730621,-1.08048391,-0.5970826,-0.7875755,-0.665701,-1.06307328,-0.442435145],[-0.05833357,-0.04309002,-0.139892533,-0.06331472,-0.03498814,-0.0461507328,-0.0390090719,-0.0622944869,-0.02592603,-0.05833357,-0.04309002,-0.139892533,-0.06331472,-0.03498814,-0.0461507328,-0.0390090719,-0.0622944869,-0.02592603],[0.5324207,0.3932902,1.27682376,0.577884555,0.319342881,0.421225846,0.356042624,0.5685727,0.236631423,0.5324207,0.3932902,1.27682376,0.577884555,0.319342881,0.421225846,0.356042624,0.5685727,0.236631423],[2.01732039,1.49016058,4.8378334,2.18958116,1.20997715,1.59600759,1.34903109,2.154299,0.8965869,2.01732039,1.49016058,4.8378334,2.18958116,1.20997715,1.59600759,1.34903109,2.154299,0.8965869],[1.21151054,0.8949224,2.905382,1.31496251,0.726657033,0.9584893,0.8101665,1.29377353,0.538449168,1.21151054,0.8949224,2.905382,1.31496251,0.726657033,0.9584893,0.8101665,1.29377353,0.538449168],[-2.66202855,-1.96639562,-6.38393927,-2.88934159,-1.59666944,-2.10607,-1.780163,-2.84278369,-1.18312383,-2.66202855,-1.96639562,-6.38393927,-2.88934159,-1.59666944,-2.10607,-1.780163,-2.84278369,-1.18312383],[1.14159727,0.843278646,2.73771954,1.23907936,0.6847235,0.903177261,0.7634138,1.21911311,0.5073766,1.14159727,0.843278646,2.73771954,1.23907936,0.6847235,0.903177261,0.7634138,1.21911311,0.5073766],[0.499091446,0.368670434,1.19689524,0.5417093,0.299352169,0.394857317,0.333754539,0.5329804,0.221818432,0.499091446,0.368670434,1.19689524,0.5417093,0.299352169,0.394857317,0.333754539,0.5329804,0.221818432],[5.19245958,3.83558226,12.4522877,5.63584852,3.11440754,4.108026,3.47232366,5.545034,2.30776,5.19245958,3.83558226,12.4522877,5.63584852,3.11440754,4.108026,3.47232366,5.545034,2.30776],[-1.51527333,-1.1193068,-3.63384986,-1.64466381,-0.90885216,-1.19881189,-1.0133,-1.61816216,-0.6734548,-1.51527333,-1.1193068,-3.63384986,-1.64466381,-0.90885216,-1.19881189,-1.0133,-1.61816216,-0.6734548],[0.464494973,0.3431146,1.11392784,0.5041586,0.2786014,0.367486268,0.310619056,0.496034771,0.206442222,0.464494973,0.3431146,1.11392784,0.5041586,0.2786014,0.367486268,0.310619056,0.496034771,0.206442222],[0.584822237,0.4319983,1.40249038,0.634760737,0.350773,0.4626834,0.39108482,0.624532342,0.259920985,0.584822237,0.4319983,1.40249038,0.634760737,0.350773,0.4626834,0.39108482,0.624532342,0.259920985],[0.02940228,0.0217189677,0.07051102,0.0319129676,0.0176353175,0.02326168,0.019662017,0.03139873,0.01306768,0.02940228,0.0217189677,0.07051102,0.0319129676,0.0176353175,0.02326168,0.019662017,0.03139873,0.01306768],[-3.4264822,-2.53108454,-8.217213,-3.71907258,-2.05518436,-2.710869,-2.29137182,-3.65914464,-1.522881,-3.4264822,-2.53108454,-8.217213,-3.71907258,-2.05518436,-2.710869,-2.29137182,-3.65914464,-1.522881],[-6.05550766,-4.473101,-14.5220051,-6.57259274,-3.63205862,-4.7908287,-4.0494647,-6.466684,-2.69133687,-6.05550766,-4.473101,-14.5220051,-6.57259274,-3.63205862,-4.7908287,-4.0494647,-6.466684,-2.69133687],[-0.146447435,-0.10817825,-0.351202667,-0.158952713,-0.08783833,-0.115862221,-0.09793296,-0.1563914,-0.06508775,-0.146447435,-0.10817825,-0.351202667,-0.158952713,-0.08783833,-0.115862221,-0.09793296,-0.1563914,-0.06508775],[1.70511222,1.25953758,4.089112,1.85071325,1.0227164,1.34900331,1.14024985,1.82089138,0.75782764,1.70511222,1.25953758,4.089112,1.85071325,1.0227164,1.34900331,1.14024985,1.82089138,0.75782764],[2.05080032,1.51489162,4.91812325,2.22592,1.23005819,1.62249529,1.37141991,2.19005227,0.911466837,2.05080032,1.51489162,4.91812325,2.22592,1.23005819,1.62249529,1.37141991,2.19005227,0.911466837],[-0.360747874,-0.26647836,-0.8651269,-0.391552478,-0.2163745,-0.2854065,-0.241240859,-0.3852431,-0.1603324,-0.360747874,-0.26647836,-0.8651269,-0.391552478,-0.2163745,-0.2854065,-0.241240859,-0.3852431,-0.1603324],[0.3696336,0.2730421,0.886436164,0.401196927,0.221704111,0.292436451,0.24718295,0.394732177,0.1642816,0.3696336,0.2730421,0.886436164,0.401196927,0.221704111,0.292436451,0.24718295,0.394732177,0.1642816],[2.686185,1.98423934,6.44186926,2.91556048,1.61115813,2.1251812,1.79631686,2.86858,1.19385993,2.686185,1.98423934,6.44186926,2.91556048,1.61115813,2.1251812,1.79631686,2.86858,1.19385993],[-4.92521763,-3.638175,-11.8114014,-5.345786,-2.954117,-3.896597,-3.29361248,-5.259646,-2.18898559,-4.92521763,-3.638175,-11.8114014,-5.345786,-2.954117,-3.896597,-3.29361248,-5.259646,-2.18898559],[-0.6726093,-0.496845156,-1.61301684,-0.730044,-0.403427184,-0.5321364,-0.44979015,-0.7182803,-0.29893747,-0.6726093,-0.496845156,-1.61301684,-0.730044,-0.403427184,-0.5321364,-0.44979015,-0.7182803,-0.29893747],[-0.146414369,-0.108153827,-0.351123363,-0.158916831,-0.0878184959,-0.115836062,-0.0979108438,-0.156356081,-0.06507306,-0.146414369,-0.108153827,-0.351123363,-0.158916831,-0.0878184959,-0.115836062,-0.0979108438,-0.156356081,-0.06507306],[-3.06149316,-2.26147342,-7.34191465,-3.322917,-1.836266,-2.42210722,-2.04729486,-3.26937246,-1.36066365,-3.06149316,-2.26147342,-7.34191465,-3.322917,-1.836266,-2.42210722,-2.04729486,-3.26937246,-1.36066365],[0.117546789,0.08682983,0.281894624,0.127584219,0.07050389,0.09299741,0.07860639,0.125528365,0.05224302,0.117546789,0.08682983,0.281894624,0.127584219,0.07050389,0.09299741,0.07860639,0.125528365,0.05224302],[0.0417013541,0.0308040846,0.100006022,0.04526227,0.02501223,0.03299212,0.0278867055,0.0445329249,0.0185339358,0.0417013541,0.0308040846,0.100006022,0.04526227,0.02501223,0.03299212,0.0278867055,0.0445329249,0.0185339358],[-0.9423817,-0.696121454,-2.259971,-1.02285254,-0.565235138,-0.7455674,-0.6301935,-1.00637054,-0.418836325,-0.9423817,-0.696121454,-2.259971,-1.02285254,-0.565235138,-0.7455674,-0.6301935,-1.00637054,-0.418836325]],"gamma":[0.3137571,-1.02415538,-0.0600139573,0.5477579,2.07543254,1.24641,-2.73871255,1.17448282,0.513468564,5.34203672,-1.55892313,0.4778755,0.601668954,0.0302492585,-3.52518749,-6.229946,-0.150666088,1.75423062,2.10987687,-0.3711398,0.380281478,2.76356459,-5.067096,-0.6919849,-0.150632069,-3.14968443,0.120932914,0.0429026261,-0.9695285],"error":[0.0,0.0,0.0,0.0,0.0,0.0,0.0,0.0,0.0,0.0,0.0,0.0,0.0,0.0,0.0,0.0,0.0,0.0,0.0,0.0,0.0,0.0,0.0,0.0,0.0,0.0,0.0,0.0,0.0]},{"outputs":[0.228921175,-0.9283845,-0.948961,-0.7956292,-0.564222157,0.4794691,-0.351103783,-0.446644,0.306552619,-0.9961622,-0.114790194,0.196122438,0.11735002,0.9199955,-0.209996223,0.102314666,0.6578049,-0.2531789,0.3180652,-0.980724633,-0.8554921,-0.7263173,0.9514381,-0.8623701,0.935198069,0.905293643,-0.346264184,0.712323248,0.329816073],"inputs":[0.820694566,0.7737885,-0.9584537,0.930155456,0.673481643,-0.594134033,0.671750844,0.862899959,-0.88552314,0.06538549,-0.893174648,0.7096484,0.141098425,-0.9277561,0.331098646,0.09825389,0.963757932,0.23764883,-0.5887748,0.935655951,0.7788805,-0.254209518,0.55900687,-0.687630951,0.789736867,0.4746936,-0.870474339,-0.992436647,0.411826164],"weights":[[-0.351584,0.0311827939,-0.211618751,0.02105701,0.126993939,-0.430644333,-0.0296100751,-0.229726955,-0.228052124,-0.512628853,0.0247678217,-0.202014759,-0.239233166,-0.145182118,0.5128538,0.303831965,0.37609905,-0.44714,-0.3040789,-0.3290401,-0.202183962,-0.269386739,0.2591215,0.1475052,0.379015058,-0.09855927,0.150573,-0.5409223,0.190431938],[0.360794723,0.163132757,0.248166114,-0.231682166,-0.31331715,0.104003973,0.4202495,0.165670961,0.357433826,0.09584103,0.230577022,-0.443881333,-0.0261364784,0.373856336,0.293236017,-0.204961836,-0.394946337,-0.270863533,-0.4463766,0.123151407,0.150390476,-0.4588377,-0.0283084381,0.071678184,-0.4884273,0.397547632,0.38869673,0.250959724,0.1724799],[0.18651557,-0.269885,-0.107356228,-0.101682179,0.113375753,0.00655328669,-0.194553211,0.32373935,0.4538368,-0.3676736,0.258457541,-0.4968963,-0.3472106,0.410907179,-0.0977781042,-0.0127559183,-0.491294,0.217734054,-0.122088253,0.370947331,-0.167226776,0.220221743,-0.4358915,0.173489377,-0.09313585,0.446410358,0.3513212,-0.30448845,-0.346727252],[-0.240304217,-0.205699459,0.199526265,-0.3173769,0.489368618,-0.3058751,-0.164873153,-0.137445331,0.177079275,0.3760379,-0.100947939,-0.0253615882,-0.00473467866,-0.365969032,-0.353957444,-0.237182617,0.100084893,0.0424572639,-0.405879468,-0.429895759,-0.407938153,0.475631237,-0.322185576,0.0154401772,0.371645451,-0.186541483,0.401327968,-0.34734568,0.209711164],[0.5039852,0.147632718,0.115744665,-0.305909157,0.157003284,0.167663172,0.370475948,-0.381589025,0.327444255,-0.364482552,0.186335459,-0.33973214,-0.343253016,-0.207158491,0.386964649,0.460575551,-0.00207344466,0.399158418,0.0443940274,0.5219198,-0.0122802937,0.310213625,-0.0034845497,0.1660051,-0.316304535,-0.36009,-0.285903424,-0.4426922,-0.2802098],[-0.165251255,0.1096957,-0.184964314,-0.34371376,0.169247225,0.281388044,-0.281277716,0.246048674,-0.1788247,0.4131171,-0.08383129,-0.263196677,-0.2856337,0.1993737,-0.149655655,-0.147021979,0.385574281,0.373488039,0.183957517,-0.259114,-0.005680629,-0.08428586,-0.145707726,-0.160844147,-0.309522152,-0.306022942,-0.2712558,-0.329076558,0.432073057],[-0.5124718,0.0278873015,-0.05322208,0.192539081,0.368206233,0.0586789064,-0.0412049331,-0.07826592,0.478417635,-0.007310047,0.135806769,0.0810805261,-0.3015427,-0.3432325,-0.486743361,-0.351807833,0.14842397,-0.240363553,-0.382261485,-0.439936638,-0.179919928,-0.290042818,-0.3060685,0.1444065,0.3014568,0.125971064,0.3918435,-0.221052349,0.4431351],[0.40854454,-0.134009212,0.109114572,-0.387115359,0.245258585,-0.188305661,-0.173071146,-0.528902769,0.1284461,-0.2113061,-0.321469456,0.417665958,0.4351168,0.5062424,-0.0991971642,-0.4721566,0.191314161,-0.140479445,-0.20184578,-0.121105291,-0.321016341,0.0606797822,-0.505064547,-0.4448246,-0.453131855,0.14227201,0.328862041,-0.131635875,0.2934464],[0.4075033,-0.278247744,0.187645316,-0.3115484,0.003010387,-0.439428419,-0.4237994,-0.465261877,-0.05595739,-0.0385704339,0.335482031,0.119336076,-0.341739774,-0.441773355,0.435031056,0.455266982,-0.407031,-0.1503701,-0.241655514,0.243412465,0.0532167964,-0.408593357,-0.284234822,0.116107129,0.347003043,0.200294867,-0.0616778433,-0.0988998562,0.0242234021],[-0.419883937,-0.391603,-0.008408305,-0.483772248,-0.297101319,0.204680741,-0.48049587,-0.0173988622,0.248617008,-0.0475240946,0.439353526,-0.21589978,0.49861452,-0.212451458,0.420893431,-0.066594556,0.240135133,-0.4449187,-0.0009815238,-0.455377072,-0.45157963,0.4460763,-0.226787463,0.0680649653,0.0558084771,-0.305113018,0.318497479,-0.485016018,-0.45265007],[-0.1413639,0.2607945,0.115268655,0.269381464,0.01424174,-0.147061527,-0.175108626,-0.12082009,0.130442888,0.455446154,-0.173934668,0.435584038,0.006817414,-0.15243426,0.4267188,-0.218619123,0.00328175118,0.105769604,0.291229248,-0.159280524,-0.319515228,-0.392989218,0.181981444,0.371899784,-0.152053818,-0.0144249853,-0.37998426,0.31436342,0.422339678],[0.0219386984,0.576384962,0.299679369,-0.408295184,-0.0188326556,-0.1426095,0.261616975,-0.11694815,-0.02593666,-0.0006440041,0.363517761,0.182292327,-0.409126729,-0.487268835,-0.34446,-0.348965734,-0.288051784,0.09330383,0.0102763912,-0.05300806,-0.129651949,-0.453780532,0.157493085,-0.548197,0.258572161,0.43089655,-0.380002379,-0.51746434,0.286756247],[-0.010615496,-0.4167228,-0.3660823,0.07550175,-0.00293556461,-0.3662679,0.5213128,0.0540322922,0.3306118,-0.42996946,0.370186746,-0.185613468,0.487086117,0.342156172,-0.35803324,0.374824435,0.32110402,-0.3823275,-0.5378687,0.160069838,0.341181546,-0.314331323,0.4851697,-0.0115619916,0.061552614,0.186251789,-0.204739437,-0.2026518,0.422282517],[-0.182242721,0.0725671947,-0.298093,0.108168773,0.0597552881,-0.372228175,0.0205780976,0.2015387,-0.383088559,0.140735209,0.40337348,-0.311321229,0.155599192,-0.297478974,0.008771373,0.122833878,-0.371398449,-0.179034337,-0.3759441,0.00486552157,-0.3301782,0.4663196,0.301361233,-0.307490945,0.0148233147,0.505400836,-0.322301269,-0.431331336,0.185226679],[-0.492412,0.241292775,0.339031637,0.0482692532,0.094512485,0.136966109,-0.0354806632,0.241656631,0.145863548,-0.06331806,0.284733772,0.04761028,-0.321940243,0.10824389,-0.09423963,-0.3912531,-0.149798214,-0.437329262,-0.454165846,-0.120113939,0.380777419,-0.131093442,-0.223240808,-0.24231714,0.3891,0.179713055,-0.075393,0.300342351,-0.5100124],[-0.32821545,0.148703158,0.360662729,0.00611752551,-0.411870658,-0.43433547,0.413520455,-0.340591,0.0399781875,-0.4197306,0.0290881246,0.5433662,0.378127426,-0.08889005,0.428844184,-0.1450841,0.469858885,0.511543334,-0.188062966,-0.07203215,-0.3716554,-0.404469222,0.442965537,-0.3711044,0.2161201,0.2753425,0.05913995,-0.110877283,0.09228446],[0.162575573,0.348749369,-0.2738313,0.264048457,0.243631423,0.032023184,0.3180634,0.359645069,-0.330140024,-0.359400839,-0.0351372324,0.07014365,-0.443615824,0.263168246,-0.491952181,-0.100962572,-0.05523363,-0.433666676,0.380514,-0.07982202,0.393856972,-0.482684165,0.229282141,0.487023622,-0.0718471557,0.444119662,0.4963762,0.182607949,0.2501553],[0.305181772,-0.01235223,-0.143964559,-0.0645307,0.0534385741,0.3254585,-0.117000423,-0.06672114,-0.366459131,-0.430538148,0.434816718,-0.245451644,-0.0477500223,0.1463148,0.463186473,0.4375094,0.4305331,-0.395945072,-0.279239744,0.5515606,0.480600744,-0.315485418,0.311239749,0.2118081,-0.360505253,0.3084592,-0.08791459,-0.514575064,-0.170262352],[-0.08943802,0.350601315,-0.0601137839,-0.2626663,-0.340678662,-0.162614882,0.3997077,-0.409051538,-0.389148533,0.0214320458,0.214148641,0.375007868,-0.453606546,-0.382972658,0.471853375,0.419003934,-0.047293324,-0.06900608,-0.248382673,0.473372132,-0.29948613,0.13065581,0.5002884,0.07431563,0.390742123,0.523575366,-0.01349451,0.0356379822,0.266535252],[-0.117426515,0.31669414,-0.147614136,-0.361768275,-0.316181958,0.456205159,-0.188671753,-0.0357918963,0.420836776,-0.0371300429,-0.245801643,-0.5291927,0.422083884,0.0237273872,-0.0374606363,0.00121303543,-0.4524116,0.210267186,0.5178282,0.184493348,0.282130182,0.187115952,-0.3119345,-0.218391553,-0.24783814,-0.453706264,0.236683965,0.3331804,0.3636192],[-0.1464904,-0.4656469,0.355695128,-0.299618751,-0.205903083,0.436010152,0.06340801,-0.0402177572,0.227395922,0.4352605,-0.216024548,-0.009837816,0.0159684177,-0.08108753,0.449823081,-0.528746963,0.2849676,-0.299985737,-0.3598829,-0.1227793,-0.4739807,0.231173828,-0.343193024,0.0853236,0.3989214,0.298120022,0.220357358,0.172897875,-0.5003782],[0.337679058,-0.4517138,-0.264320254,0.028977802,0.02453685,0.08213207,-0.18752268,-0.0205164142,0.3426671,0.083623834,0.202906042,0.385572,-0.4361448,-0.12097767,0.370871127,0.193206668,-0.338177651,-0.11800234,-0.235092819,-0.2393912,-0.171622589,-0.0964242145,0.387645721,0.08099893,-0.113266475,0.3017244,0.07826579,0.387268364,-0.25633955],[-0.316781282,0.0266085714,-0.27096343,0.427711129,-0.1558972,0.261041,0.471232861,-0.4915967,-0.4604948,0.348892957,0.420556426,0.323369861,-0.0672593,-0.436800718,0.218940109,-0.03522803,0.137022987,-0.390048623,-0.196490511,-0.05827664,0.5362778,0.283488482,0.110530332,-0.09738531,-0.120779827,0.360804528,-0.181986272,-0.360012084,0.223310515],[-0.301417023,0.1794129,0.5111743,-0.06143261,-0.209889442,0.124939814,-0.372222662,-0.02566942,0.366639882,0.214547634,-0.0333192,0.4227196,0.163623184,-0.4092437,-0.119030878,-0.08514949,0.005564889,0.248187631,-0.0620579869,-0.323049724,-0.411151826,0.303928077,0.181143045,-0.2842903,0.0251210425,-0.245838508,0.0893343538,0.417457759,0.349030674],[0.0575126968,0.250372469,-0.0994456857,0.160481051,-0.140719727,0.326614082,-0.248661071,0.29283306,-0.1954675,-0.293169677,-0.0108173015,0.0181017779,0.411287546,0.2473562,-0.08311984,0.3809671,-0.09822227,-0.171857,0.113492891,-0.381159067,0.480646759,0.351795018,0.5007761,-0.422659516,0.424868673,0.06675915,-0.233162031,-0.499323279,0.292894572],[0.3179911,0.527337849,-0.462656438,-0.2509496,0.0146133732,-0.325600743,0.569881856,-0.424590677,-0.21104984,-0.357244223,-0.196070328,-0.16260767,0.0592710227,-0.213052511,0.09164571,0.514546931,0.335154951,-0.22990109,-0.449270874,-0.0601812154,0.0007567983,-0.333367556,-0.3678604,0.390427768,0.325365067,0.5816592,0.158495411,0.215596914,-0.09349052],[0.28669253,0.4514286,0.00412528124,-0.29604125,-0.419783175,-0.115716621,-0.123047292,-0.1048177,-0.3722941,-0.115208723,-0.0617389642,-0.05980682,0.230795041,-0.4464826,-0.406666726,-0.08409634,0.3860247,-0.194264933,0.06230704,-0.0453693941,-0.372174978,-0.349960953,-0.179726675,-0.280305237,0.164052352,-0.09420195,0.172730491,0.3439841,-0.281554163],[-0.0517175235,0.19195357,-0.06429503,-0.26962015,0.236993283,-0.0621905364,-0.09539643,0.202853158,-0.479534954,-0.00321518118,0.3525333,-0.202040881,0.0487587526,0.119144142,0.373375833,0.188810915,0.551064253,0.207354739,-0.480931848,0.558093,0.0736052,0.479324,0.280550748,-0.3208621,-0.14228335,-0.1267048,-0.00211729179,0.0690033,-0.143767685],[0.07036663,0.274220824,0.135976836,-0.00590244168,-0.299408674,0.1269564,0.380286157,0.508343339,-0.389327466,0.4644339,0.0258814339,0.335089535,0.188723266,0.252197474,0.271820575,0.2810571,-0.2082749,0.0204360541,-0.0127364974,0.04671828,0.168186411,0.154834315,0.279259831,0.112866566,0.453528523,0.296500027,-0.09366428,0.329200357,-0.156226411]],"weightsDelta":[[-1.65576291,-1.56112933,1.933694,-1.87660182,-1.35875881,1.19867384,-1.35526693,-1.74091291,1.78655553,-0.13191615,1.80199254,-1.43172574,-0.2846681,1.87176108,-0.6679962,-0.198228627,-1.9443953,-0.479459882,1.18786156,-1.88769925,-1.57140243,0.5128713,-1.12780428,1.38730526,-1.59330535,-0.9577011,1.75619435,2.002255,-0.830865145],[-0.08792468,-0.08289943,0.10268344,-0.09965172,-0.07215311,0.06365224,-0.07196768,-0.0924463347,0.09487006,-0.00700504,0.0956897959,-0.0760278,-0.0151165063,0.0993946642,-0.03547208,-0.01052638,-0.1032517,-0.0254603829,0.06307808,-0.100241013,-0.08344495,0.0272346027,-0.0598889068,0.07366898,-0.08460805,-0.05085605,0.0932578146,0.106324181,-0.04412078],[0.06547068,0.0617287643,-0.07646038,0.0742028952,0.05372681,-0.0473968759,0.0535887368,0.0688376054,-0.07064236,0.00521610957,-0.07125276,0.0566120036,0.0112560876,-0.07401148,0.0264133029,0.007838177,0.0768835247,0.01895837,-0.0469693467,0.0746417,0.0621349737,-0.0202794932,0.04459462,-0.0548555665,0.06300104,0.03786855,-0.06944185,-0.07917136,0.0328533165],[-0.451587141,-0.425777078,0.5273891,-0.511818,-0.370583236,0.3269222,-0.369630843,-0.47481066,0.48725906,-0.035978362,0.4914693,-0.390483975,-0.0776394,0.5104977,-0.182187,-0.0540641956,-0.5303077,-0.130766258,0.3239733,-0.5148446,-0.428578943,0.139878765,-0.3075935,0.378368884,-0.43455267,-0.26120013,0.478978455,0.5460882,-0.226607323],[-1.35759783,-1.28000557,1.58547986,-1.53866863,-1.11407733,0.982820034,-1.11121428,-1.42741418,1.46483767,-0.108161062,1.47749484,-1.17390454,-0.233405843,1.53469956,-0.547705352,-0.162532166,-1.594254,-0.3931201,0.973954737,-1.54776764,-1.28842866,0.420514882,-0.9247125,1.13748324,-1.30638742,-0.785240948,1.43994379,1.64169455,-0.681245267],[0.7754233,0.7311047,-0.9055834,0.8788461,0.636330962,-0.561360359,0.634695649,0.8153006,-0.8366758,0.0617786869,-0.8439052,0.670502663,0.133315131,-0.876579046,0.312834531,0.0928339958,0.910595,0.224539608,-0.5562967,0.884043157,0.7359158,-0.240186781,0.5281709,-0.649699748,0.7461733,0.448508471,-0.822457135,-0.937691748,0.389108956],[0.291480243,0.274820954,-0.3404072,0.3303567,0.23919569,-0.21101436,0.238580972,0.306470037,-0.314504951,0.0232225,-0.317222476,0.252040774,0.0501129255,-0.32950452,0.117593952,0.0348961353,0.342291057,0.0844040439,-0.20911096,0.332310259,0.276629448,-0.0902857855,0.1985385,-0.244221,0.2804852,0.168593556,-0.309160173,-0.352476656,0.146265373],[0.836506248,0.7886965,-0.976919532,0.948076069,0.6864571,-0.605580747,0.684693,0.8795248,-0.902583838,0.06664523,-0.910382748,0.7233206,0.143816859,-0.945630431,0.337477684,0.100146875,0.9823259,0.242227435,-0.6001183,0.953682542,0.7938866,-0.259107172,0.569776833,-0.700879037,0.804952145,0.483839154,-0.8872451,-1.01155722,0.4197605],[0.560196,0.528178453,-0.6542286,0.6349126,0.45971024,-0.405548543,0.458528817,0.5890048,-0.6044471,0.04463133,-0.60967,0.4843972,0.09631204,-0.6332748,0.226003841,0.06706689,0.657849252,0.162216157,-0.4018904,0.638667166,0.5316542,-0.173520267,0.381571174,-0.469368368,0.5390646,0.324019969,-0.594175,-0.677424967,0.281107455],[0.0207898952,0.01960167,-0.02427962,0.0235627666,0.0170606878,-0.0150506478,0.017016843,0.0218590461,-0.02243214,0.0016563501,-0.022625966,0.0179768652,0.003574316,-0.0235019866,0.008387416,0.002488975,0.024413988,0.006020138,-0.014914887,0.0237021055,0.01973066,-0.00643965462,0.0141608035,-0.0174191184,0.0200056732,0.0120249735,-0.02205092,-0.02514048,0.010432411],[-0.559369862,-0.52739954,0.653263867,-0.6339763,-0.4590323,0.40495047,-0.457852632,-0.588136256,0.603555739,-0.04456551,0.6087709,-0.483682871,-0.09617001,0.6323409,-0.225670546,-0.06696799,-0.6568791,-0.161976933,0.401297718,-0.637725353,-0.53087014,0.173264384,-0.381008476,0.4686762,-0.538269639,-0.323542148,0.5932988,0.676426,-0.2806929],[-2.3178134,-2.185341,2.70687413,-2.62695384,-1.90205324,1.677959,-1.89716506,-2.43701029,2.500903,-0.184662327,2.5225122,-2.00419569,-0.3984915,2.62017751,-0.9350919,-0.277489573,-2.72185421,-0.671170056,1.66282332,-2.64248848,-2.19972157,0.7179409,-1.57875252,1.94201386,-2.23038244,-1.34063411,2.458402,2.802849,-1.16308331],[-2.51018286,-2.36671567,2.931534,-2.84498072,-2.05991626,1.817223,-2.05462241,-2.63927245,2.708468,-0.199988574,2.731871,-2.170536,-0.431564748,2.837642,-1.01270092,-0.300520122,-2.94775748,-0.7268746,1.8008312,-2.86180472,-2.38229,0.7775272,-1.70978284,2.10319352,-2.4154954,-1.45190156,2.66243958,3.03547454,-1.25961471],[-0.16946438,-0.1597788,0.19791013,-0.192066848,-0.139066532,0.122682132,-0.138709143,-0.178179339,0.182850778,-0.0135013834,0.184430718,-0.146534562,-0.02913527,0.1915714,-0.06836822,-0.0202883463,-0.1990054,-0.0490718633,0.121575512,-0.193202645,-0.16083023,0.0524914637,-0.115428761,0.141988218,-0.16307196,-0.098019,0.179743364,0.204927236,-0.08503757],[0.7817157,0.7370375,-0.912932,0.885977745,0.6414947,-0.565915644,0.6398461,0.8219166,-0.843465269,0.06228001,-0.850753367,0.6759437,0.134396955,-0.8836923,0.315373123,0.093587324,0.9179843,0.2263617,-0.560811,0.891217,0.741887569,-0.242135853,0.5324569,-0.654971957,0.7522284,0.45214805,-0.8291312,-0.945300937,0.3922665],[-2.14973021,-2.02686429,2.510577,-2.43645239,-1.7641201,1.55627668,-1.75958645,-2.260283,2.31954241,-0.171270981,2.33958459,-1.85885537,-0.36959368,2.43016744,-0.8672809,-0.257366568,-2.52447081,-0.622498155,1.54223871,-2.45086026,-2.04020214,0.6658773,-1.46426451,1.80118287,-2.06863952,-1.243414,2.28012347,2.599592,-1.07873881],[-0.125324488,-0.118161671,0.146361038,-0.142039746,-0.102844276,0.09072746,-0.102579974,-0.131769478,0.135224149,-0.009984717,0.136392578,-0.10836713,-0.0215464886,0.141673356,-0.0505605452,-0.0150038982,-0.147171021,-0.03629026,0.0899090841,-0.14287971,-0.118939243,0.038819164,-0.08536336,0.105004951,-0.120597072,-0.07248827,0.132926121,0.151550427,-0.06288807],[-3.3016932,-3.112988,3.85590482,-3.74205947,-2.70944858,2.39022946,-2.70248556,-3.47148752,3.56250167,-0.263048917,3.593284,-2.854949,-0.567645669,3.73240662,-1.33202553,-0.395280063,-3.877244,-0.9560725,2.368669,-3.76418829,-3.13347316,1.022697,-2.24891114,2.766372,-3.17714882,-1.90971482,3.50195956,3.99261975,-1.65679622],[-2.57079029,-2.42385912,3.00231481,-2.91367173,-2.109652,1.86109912,-2.1042304,-2.70299673,2.773863,-0.204817221,2.797831,-2.22294283,-0.4419847,2.90615582,-1.03715217,-0.307776064,-3.01893,-0.7444247,1.84431159,-2.93090177,-2.43980932,0.796300352,-1.7510649,2.15397429,-2.47381663,-1.48695719,2.72672319,3.108765,-1.29002762],[0.0784152746,0.07393352,-0.09157781,0.08887398,0.06434946,-0.0567679927,0.0641840845,0.0824478939,-0.08460948,0.006247417,-0.08534056,0.0678051,0.0134815946,-0.08864473,0.03163563,0.009387909,0.09208462,0.02270674,-0.0562559329,0.08939954,0.07442004,-0.0242890716,0.05341168,-0.06570139,0.07545735,0.0453557633,-0.0831716061,-0.09482479,0.03934894],[0.882555962,0.8321143,-1.0306989,1.00026762,0.724246562,-0.638918,0.722385347,0.927942634,-0.9522711,0.07031404,-0.960499346,0.7631394,0.15173398,-0.9976874,0.356055826,0.105659962,1.036403,0.255562067,-0.6331548,1.00618279,0.837590039,-0.273371041,0.601143062,-0.739462435,0.849264741,0.5104745,-0.936087966,-1.06724346,0.442868322],[-0.08152636,-0.0768668,0.09521111,-0.0924000144,-0.06690249,0.0590202324,-0.06673055,-0.08571897,0.0879663154,-0.00649528,0.0887264,-0.0704952255,-0.01401647,0.09216166,-0.03289076,-0.00976037,-0.09573802,-0.02360762,0.05848786,-0.0929464251,-0.0773726255,0.0252527278,-0.0555307642,0.0683080554,-0.0784510747,-0.04715523,0.08647139,0.09858692,-0.04091009],[-0.360688359,-0.340073556,0.421232343,-0.4087955,-0.2959895,0.261116922,-0.295228839,-0.3792373,0.389179975,-0.0287363734,0.39254275,-0.3118845,-0.0620115735,0.407741,-0.145515069,-0.04318176,-0.4235635,-0.104444668,0.258761585,-0.411212921,-0.3423114,0.111722946,-0.245678827,0.302208036,-0.3470827,-0.208623841,0.382566154,0.436167568,-0.180994138],[0.365372479,0.344489962,-0.426702738,0.414104372,0.299833417,-0.264507949,0.299062878,0.384162277,-0.394234121,0.0291095618,-0.397640556,0.3159348,0.0628168955,-0.413036168,0.14740482,0.0437425449,0.429064155,0.105801046,-0.262122,0.4165532,0.346756876,-0.11317385,0.248869359,-0.306132674,0.351590157,0.211333156,-0.38753438,-0.441831917,0.183344632],[-0.139622465,-0.131642476,0.163059041,-0.158244744,-0.114577547,0.101078361,-0.114283092,-0.146802753,0.150651574,-0.01112385,0.1519533,-0.120730489,-0.02400468,0.157836542,-0.0563288853,-0.0167156588,-0.16396144,-0.04043053,0.100166604,-0.159180522,-0.132508755,0.0432479531,-0.09510227,0.116984725,-0.134355724,-0.08075829,0.148091361,0.168840468,-0.07006283],[-0.577791452,-0.544768333,0.6747777,-0.654854953,-0.474149525,0.418286651,-0.472931,-0.6075052,0.6234326,-0.0460331775,0.628819466,-0.4996119,-0.09933716,0.6531657,-0.23310253,-0.06917343,-0.678512,-0.1673113,0.4145136,-0.658727467,-0.5483532,0.178970471,-0.393556148,0.484111041,-0.5559964,-0.3341973,0.6128378,0.698702633,-0.2899369],[-0.910193,-0.858171761,1.062975,-1.03159082,-0.7469262,0.6589256,-0.7450067,-0.957001,0.982091248,-0.07251591,0.990577161,-0.787037,-0.1564855,1.02892983,-0.36720565,-0.108968683,-1.06885767,-0.2635649,0.6529819,-1.03769112,-0.863819,0.281931579,-0.6199677,0.762618542,-0.8758593,-0.526459932,0.965401351,1.1006639,-0.456736654],[-1.25862718,-1.1866914,1.4698962,-1.4264977,-1.03285956,0.911171138,-1.03020525,-1.32335389,1.358049,-0.100275978,1.36978352,-1.08832538,-0.216390252,1.422818,-0.5077769,-0.150683358,-1.4780308,-0.364461124,0.9029522,-1.4349333,-1.19450057,0.3898588,-0.857299745,1.05455911,-1.21115,-0.7279959,1.33497,1.52201283,-0.6315816],[-1.57589734,-1.48582828,1.84042239,-1.786084,-1.29321909,1.14085591,-1.28989565,-1.6569401,1.70038116,-0.125553191,1.71507347,-1.36266649,-0.270937115,1.78147674,-0.635775447,-0.188667074,-1.85060751,-0.45633316,1.130565,-1.79664612,-1.495606,0.488132983,-1.07340467,1.32038867,-1.51645231,-0.9115064,1.67148435,1.90567636,-0.7907884]],"gamma":[-2.01751423,-0.107134476,0.07977472,-0.550249934,-1.65420592,0.944837868,0.3551629,1.01926625,0.6825876,0.0253320746,-0.681581,-2.82420945,-3.05860782,-0.206488982,0.952505052,-2.61940336,-0.152705386,-4.02304745,-3.13245678,0.09554745,1.07537687,-0.09933825,-0.4394916,0.4451991,-0.1701272,-0.7040274,-1.10905206,-1.53361213,-1.92019951],"error":[0.0,0.0,0.0,0.0,0.0,0.0,0.0,0.0,0.0,0.0,0.0,0.0,0.0,0.0,0.0,0.0,0.0,0.0,0.0,0.0,0.0,0.0,0.0,0.0,0.0,0.0,0.0,0.0,0.0]},{"outputs":[0.404848456,3.21439862],"inputs":[0.228921175,-0.9283845,-0.948961,-0.7956292,-0.564222157,0.4794691,-0.351103783,-0.446644,0.306552619,-0.9961622,-0.114790194,0.196122438,0.11735002,0.9199955,-0.209996223,0.102314666,0.6578049,-0.2531789,0.3180652,-0.980724633,-0.8554921,-0.7263173,0.9514381,-0.8623701,0.935198069,0.905293643,-0.346264184,0.712323248,0.329816073],"weights":[[0.456007123,-0.0510081165,0.332743973,0.04480561,-0.0850344151,0.0653453,0.2703915,-0.458330542,0.324107051,-0.240615055,0.464808047,-0.414252847,0.2596513,0.4166646,0.208860666,0.1097091,-0.18365036,0.270728469,-0.208470121,0.3474443,-0.203284189,-0.455586463,0.395076662,-0.467482954,-0.298077136,0.321433276,0.2792822,0.5624973,-0.373040169],[0.198124871,-0.104462966,-0.489022672,-0.000384858955,0.245331079,-0.08272973,-0.253231823,-0.1269985,-0.156296656,-0.650975347,-0.105443388,0.6416267,0.3878612,0.274893463,-0.2806273,0.374411225,0.278750658,0.464960784,0.674960136,-0.753421366,-0.7328864,0.0187949762,0.776574433,-0.2985314,0.5539714,0.6844266,-0.009981587,0.426524669,0.544846535]],"weightsDelta":[[-0.5940851,2.40929842,2.46269751,2.06477833,1.464242,-1.24429488,0.9111675,1.15910888,-0.795550466,2.58519173,0.297897935,-0.5089674,-0.304541081,-2.3875277,0.544972,-0.265522063,-1.70710337,0.657037556,-0.825427353,2.54512882,2.22013164,1.88490331,-2.469126,2.23798084,-2.4269805,-2.349374,0.898607969,-1.84858668,-0.855922639],[-1.55336785,6.29964733,6.43927145,5.398823,3.82858682,-3.25348616,2.38245034,3.03074837,-2.080144,6.75955963,0.778920531,-1.33080876,-0.796290457,-6.242723,1.42495072,-0.694266558,-4.463602,1.71797109,-2.15826368,6.65480661,5.805029,4.9284997,-6.45608,5.8517,-6.34588146,-6.142962,2.34961081,-4.833542,-2.23800039]],"gamma":[-2.59515142,-6.78560162],"error":[-2.59515142,-6.78560162]}]}